svm_type epsilon_svr
kernel_type rbf
gamma 8
nr_class 2
total_sv 6313
rho -0.325909
SV
0.423333325796413 1:-0.994273 2:-0.264372 3:0.316667 4:-0.114638 5:0.413904 6:-0.198502 7:-0.861861 8:0.150422 9:-0.0857914 10:-1 11:-1 12:-1 13:-1 14:-1 15:-1 
-0.9173293488083603 1:-0.993916 2:-0.297739 3:0.411111 4:-0.0444283 5:0.40703 6:-0.198502 7:-0.767761 8:-0.00970874 9:-0.047985 10:-1 11:-1 12:-1 13:-1 14:-1 15:-1 
0.7150968663980989 1:-0.993948 2:-0.393047 3:0.344444 4:-0.072733 5:0.366116 6:-0.171036 7:-0.915039 8:0.113353 9:-0.002285 10:-1 11:-1 12:-1 13:-1 14:-1 15:-1 
-2 1:-0.993823 2:-0.381155 3:0.530556 4:-0.113898 5:0.407917 6:-0.285893 7:-0.964894 8:-0.0714916 9:0.200042 10:-1 11:-1 12:-1 13:-1 14:-1 15:-1 
-0.03146823007618609 1:-0.994396 2:-0.302085 3:0.358333 4:0.094076 5:-0.0894778 6:-0.171036 7:-0.720607 8:0.541041 9:-0.548816 10:-1 11:-1 12:-1 13:-1 14:-1 15:-1 
-0.1023411340888248 1:-0.994055 2:-0.25628 3:0.4 4:-0.0523148 5:-0.208892 6:-0.293383 7:-0.517865 8:-0.199597 9:-0.141462 10:-0.869565 11:-0.75 12:-1 13:-0.75 14:-1 15:-1 
-1.118023275023285 1:-0.994253 2:-0.395412 3:0.441667 4:-0.221516 5:-0.364231 6:-0.390762 7:-0.0513087 8:-0.295171 9:-0.52929 10:-0.927536 11:-0.875 12:-0.875 13:-1 14:-1 15:-1 
-1.349959281821789 1:-0.993347 2:-0.288194 3:0.822222 4:0.0309541 5:0.109436 6:-0.171036 7:-1 8:-0.830286 9:0.860199 10:-1 11:-1 12:-1 13:-1 14:-1 15:-1 
-0.7207238329964143 1:-0.993534 2:-0.288194 3:0.330556 4:-0.0187242 5:0.0067635 6:-0.171036 7:-0.951392 8:-0.166814 9:0.26506 10:-1 11:-1 12:-1 13:-1 14:-1 15:-1 
-0.2647694785972303 1:-0.993884 2:-0.288194 3:0.433333 4:-0.0358646 5:-0.0433529 6:-0.188514 7:-0.950353 8:0.0387089 9:0.0947237 10:-1 11:-1 12:-1 13:-1 14:-1 15:-1 
-1.237779223850604 1:-0.993498 2:-0.288194 3:0.688889 4:-0.193331 5:-0.182282 6:-0.600499 7:-0.633361 8:-0.836843 9:0.498961 10:-1 11:-1 12:-1 13:-1 14:-1 15:-1 
0.3344722868127714 1:-0.993815 2:-0.305588 3:0.402778 4:-0.0331595 5:0.334849 6:-0.171036 7:-0.969672 8:-0.174127 9:0.289364 10:-1 11:-1 12:-1 13:-1 14:-1 15:-1 
-0.06371384006601037 1:-0.944316 2:-0.475288 3:0.5 4:0.119955 5:0.373545 6:-0.171036 7:-0.854175 8:-0.137309 9:0.14354 10:-0.927536 11:-1 12:-1 13:-1 14:-0.75 15:-0.940151 
-0.06747243813918317 1:-0.991675 2:0.141207 3:0.369444 4:0.120993 5:0.236833 6:-0.171036 7:-0.769215 8:-0.476485 9:0.337973 10:-0.884058 11:-1 12:-1 13:-1 14:-1 15:-0.999901 
-0.1624029474435436 1:-0.993752 2:-0.176774 3:0.55 4:0.0934769 5:0.233064 6:-0.171036 7:-1 8:-0.306771 9:0.428957 10:-1 11:-1 12:-1 13:-1 14:-1 15:-1 
-0.4527825686844945 1:-0.99381 2:-0.26565 3:0.627778 4:-0.175005 5:0.58277 6:-0.545568 7:-0.935189 8:0.260875 9:-0.103448 10:-0.956522 11:-1 12:-0.875 13:-1 14:-1 15:-1 
-0.07409564247061229 1:-0.994083 2:-0.4581 3:0.438889 4:-0.00296362 5:-0.183723 6:-0.253433 7:-0.610096 8:-0.330728 9:0.0587869 10:-0.652174 11:-0.625 12:-1 13:-1 14:-0.958333 15:-1 
-0.1814080059405918 1:-0.994126 2:-0.423653 3:0.405556 4:-0.0313245 5:-0.21998 6:-0.270911 7:-0.600956 8:-0.181692 9:-0.0731201 10:-0.73913 11:-0.875 12:-1 13:-1 14:-1 15:-1 
-0.09832415253835744 1:-0.993957 2:-0.583369 3:0.397222 4:0.00852376 5:-0.197361 6:-0.258427 7:-0.499377 8:-0.375615 9:-0.0149564 10:-0.666667 11:-0.375 12:-0.875 13:-0.75 14:-1 15:-1 
-0.06584256921852433 1:-0.993938 2:-0.275729 3:0.430556 4:-0.0207671 5:-0.124626 6:-0.263421 7:-0.604902 8:-0.313832 9:0.0396759 10:-0.637681 11:-0.75 12:-0.75 13:-0.75 14:-1 15:-1 
-0.107729635806184 1:-0.994293 2:-0.398848 3:0.436111 4:0.0443712 5:-0.0378091 6:-0.228464 7:-1 8:0.675955 9:-0.380557 10:-0.73913 11:-0.625 12:-0.875 13:-0.5 14:-0.958333 15:-1 
-0.08837378049834746 1:-0.993706 2:-0.202425 3:0.372222 4:0.0727938 5:0.438075 6:-0.225968 7:-0.545492 8:-0.267179 9:-0.0581637 10:-0.956522 11:-1 12:-0.875 13:-0.75 14:-1 15:-1 
-0.01897946039379327 1:-0.993998 2:-0.396287 3:0.441667 4:-0.143541 5:0.389844 6:-0.330836 7:-0.940174 8:0.133779 9:0.00623182 10:-0.985507 11:-1 12:-0.875 13:-1 14:-1 15:-1 
-0.05447202865517339 1:-0.993782 2:-0.330441 3:0.547222 4:-0.0433214 5:0.484422 6:-0.313358 7:-1 8:0.433363 9:-0.180723 10:-0.956522 11:-0.5 12:-0.75 13:-0.25 14:-1 15:-1 
-2 1:-0.994175 2:-0.281238 3:0.458333 4:-0.163682 5:0.640204 6:-0.395755 7:-0.406523 8:-0.099483 9:-0.33548 10:-0.971014 11:-1 12:-1 13:-1 14:-1 15:-1 
-1.874049948382869 1:-0.994375 2:-0.35629 3:0.516667 4:-0.131045 5:0.612596 6:-0.358302 7:-0.540922 8:-0.168831 9:-0.143747 10:-0.985507 11:-1 12:-0.875 13:-1 14:-1 15:-1 
0.3904349221701792 1:-0.994348 2:-0.39055 3:0.408333 4:-0.344611 5:0.56891 6:-0.171036 7:-0.896759 8:0.342075 9:-0.208766 10:-1 11:-1 12:-1 13:-1 14:-1 15:-1 
-0.1512413444624351 1:-0.994118 2:-0.357927 3:0.405556 4:-0.0942765 5:0.57778 6:-0.171036 7:-0.799543 8:0.120666 9:-0.123598 10:-0.985507 11:-1 12:-1 13:-1 14:-1 15:-0.999975 
0.8360453077896209 1:-0.993944 2:-0.289642 3:0.388889 4:0.000608409 5:0.358244 6:-0.171036 7:-0.951392 8:0.0838482 9:0.0585791 10:-1 11:-1 12:-1 13:-1 14:-1 15:-1 
-0.3545243088323068 1:-0.994301 2:-0.155388 3:0.205556 4:-0.0602539 5:0.371438 6:-0.0736579 7:-0.939967 8:-0.258605 9:0.329456 10:-1 11:-1 12:-1 13:-1 14:-1 15:-1 
-0.567018812124065 1:-0.994344 2:-0.0855924 3:0.252778 4:-0.01575 5:0.437299 6:-0.0586767 7:-0.769215 8:-0.257092 9:0.15725 10:-1 11:-1 12:-1 13:-1 14:-1 15:-1 
-0.07778589674329228 1:-0.992968 2:-0.1037 3:0.727778 4:-0.0782063 5:0.46524 6:-0.0262172 7:-0.937682 8:0.0276132 9:0.0911924 10:-1 11:-1 12:-1 13:-1 14:-1 15:-0.999802 
-0.03550464510378791 1:-0.995018 2:-0.359138 3:0.366667 4:-0.278603 5:0.525003 6:-0.0262172 7:-0.781886 8:-0.136301 9:0.0704196 10:-1 11:-1 12:-1 13:-1 14:-1 15:-1 
-0.05169484659900449 1:-0.994616 2:-0.366288 3:0.5 4:-0.37963 5:0.502938 6:-0.0262172 7:-0.844204 8:-0.407389 9:0.356045 10:-1 11:-1 12:-1 13:-1 14:-1 15:-1 
0.4054914136180264 1:-0.993656 2:-0.0943534 3:0.280556 4:-0.14433 5:0.443176 6:-0.0262172 7:-0.948068 8:-0.0165175 9:0.137931 10:-1 11:-1 12:-1 13:-1 14:-1 15:-1 
-0.1183244799845471 1:-0.993585 2:-0.0351297 3:0.211111 4:0.334296 5:0.444728 6:-0.0262172 7:-0.667636 8:-0.0480393 9:-0.116535 10:-1 11:-1 12:-1 13:-1 14:-1 15:-1 
-2 1:-0.993612 2:-0.247248 3:0.8 4:-0.224281 5:0.501275 6:-0.747815 7:-0.513502 8:-0.227588 9:-0.122767 10:-1 11:-1 12:-1 13:-1 14:-1 15:-1 
-2 1:-0.993606 2:-0.227885 3:0.794444 4:-0.166156 5:0.423107 6:-0.747815 7:-0.475904 8:-0.409406 9:-0.0105941 10:-1 11:-1 12:-1 13:-1 14:-1 15:-1 
-2 1:-0.993642 2:-0.244223 3:0.802778 4:-0.159142 5:0.459253 6:-0.747815 7:-0.419817 8:-0.295675 9:-0.160366 10:-1 11:-1 12:-1 13:-1 14:-1 15:-1 
-2 1:-0.993629 2:-0.239271 3:0.797222 4:-0.187174 5:0.43996 6:-0.747815 7:-0.382426 8:-0.250284 9:-0.235147 10:-1 11:-1 12:-1 13:-1 14:-1 15:-1 
-0.2564654773600343 1:-0.993875 2:-0.415375 3:0.616667 4:-0.0143043 5:-0.234061 6:-0.40824 7:-0.630037 8:-0.448745 9:0.175737 10:-1 11:-1 12:-1 13:-1 14:-1 15:-1 
0.138539263267998 1:-0.993278 2:-0.110004 3:0.508333 4:0.0884931 5:0.178956 6:-0.0262172 7:-1 8:-0.955869 9:0.963648 10:-1 11:-1 12:-1 13:-1 14:-1 15:-0.999975 
-0.1986900400610816 1:-0.993539 2:-0.288194 3:0.902778 4:0.108227 5:0.125845 6:-0.0262172 7:-1 8:-0.709999 9:0.761113 10:-1 11:-1 12:-1 13:-1 14:-1 15:-1 
-0.01631251442674439 1:-0.993644 2:-0.288194 3:0.622222 4:0.124212 5:0.0526666 6:-0.0262172 7:-1 8:0.0150044 9:0.163897 10:-0.768116 11:-1 12:-1 13:-1 14:-1 15:-1 
-0.06003212457036411 1:-0.993645 2:-0.288194 3:0.622222 4:0.13662 5:0.0534427 6:-0.0262172 7:-0.979227 8:0.0717438 9:0.0963855 10:-0.797101 11:-1 12:-1 13:-1 14:-1 15:-1 
-0.002941320486718205 1:-0.993695 2:-0.288194 3:0.616667 4:0.311806 5:0.0286063 6:-0.0262172 7:-0.974034 8:-0.338041 9:0.428749 10:-0.710145 11:-1 12:-1 13:-1 14:-1 15:-0.999975 
-0.003017834285627706 1:-0.99384 2:-0.288194 3:0.675 4:0.299991 5:-0.0230624 6:-0.0262172 7:-1 8:-0.382171 9:0.491068 10:-0.826087 11:-1 12:-1 13:-1 14:-1 15:-0.999951 
0.4061622386737755 1:-0.993692 2:-0.288194 3:0.208333 4:-0.108872 5:0.0243929 6:-0.0262172 7:-0.963648 8:-0.117387 9:0.236602 10:-1 11:-1 12:-1 13:-1 14:-1 15:-1 
-0.07387801537984999 1:-0.993871 2:-0.288194 3:0.397222 4:-0.0148042 5:-0.0271649 6:-0.0262172 7:-0.854591 8:-0.256084 9:0.241795 10:-1 11:-1 12:-1 13:-1 14:-1 15:-1 
-0.2774297565891957 1:-0.994226 2:-0.379901 3:0.366667 4:-0.311806 5:0.466681 6:-0.230961 7:-0.941213 8:0.355945 9:-0.175737 10:-0.927536 11:-1 12:-0.875 13:-1 14:-1 15:-1 
-1.482862788535207 1:-0.993857 2:-0.313749 3:0.222222 4:0.108708 5:0.0218428 6:-0.0262172 7:-0.304113 8:-0.571302 9:-0.0490237 10:-1 11:-1 12:-1 13:-1 14:-1 15:-1 
-0.02534836763874116 1:-0.993883 2:-0.281187 3:0.155556 4:-0.0191396 5:0.00188491 6:-0.0262172 7:-0.267761 8:-0.634346 9:-0.0334441 10:-1 11:-1 12:-1 13:-1 14:-1 15:-0.999951 
0.5568912459482127 1:-0.993722 2:-0.166011 3:0.447222 4:-0.285323 5:0.467236 6:-0.350811 7:-1 8:0.176901 9:0.0305359 10:-0.985507 11:-1 12:-1 13:-1 14:-1 15:-1 
-0.2786798214427544 1:-0.985931 2:-0.288242 3:0.5 4:-0.0961648 5:0.320213 6:-0.0262172 7:-0.890943 8:-0.136301 9:0.179477 10:-1 11:-1 12:-1 13:-1 14:-1 15:-0.989976 
0.02302904919417249 1:-0.993009 2:0.0829335 3:0.144444 4:0.19255 5:0.480208 6:-0.0262172 7:-0.688409 8:0.0906569 9:-0.210012 10:-1 11:-1 12:-1 13:-1 14:-1 15:-0.999975 
-1.005953091468553 1:-0.994369 2:-0.368652 3:0.355556 4:0.0195392 5:0.60051 6:-0.228464 7:-0.231616 8:-0.280545 9:-0.36103 10:-0.971014 11:-0.75 12:-0.875 13:-1 14:-1 15:-1 
-1.325974242690804 1:-0.994192 2:-0.290713 3:0.483333 4:-0.111372 5:0.647189 6:-0.390762 7:-0.640216 8:0.25104 9:-0.39032 10:-0.985507 11:-1 12:-1 13:-1 14:-1 15:-1 
-0.01383795401554507 1:-0.993888 2:-0.150575 3:0.366667 4:0.0902265 5:0.0292715 6:-0.283396 7:-0.909015 8:0.332997 9:-0.189032 10:-0.956522 11:-0.125 12:-0.75 13:-1 14:-1 15:-1 
-0.07854796944497283 1:-0.993839 2:-0.0397022 3:0.302778 4:-0.177045 5:-0.0600954 6:-0.153558 7:-0.785625 8:0.134535 9:-0.148733 10:-1 11:-1 12:-0.875 13:-1 14:-1 15:-1 
0.1266502766728115 1:-0.994011 2:-0.347616 3:0.305556 4:-0.0590547 5:0.349595 6:-0.0262172 7:-0.916909 8:-0.142605 9:0.210636 10:-1 11:-1 12:-1 13:-1 14:-1 15:-1 
-1.465412511176947 1:-0.99336 2:-0.288194 3:0.897222 4:0.265245 5:0.115423 6:-0.0262172 7:-1 8:-0.836086 9:0.864977 10:-1 11:-1 12:-1 13:-1 14:-1 15:-1 
0.6353871372486577 1:-0.993479 2:-0.288194 3:0.427778 4:0.0810066 5:0.10999 6:-0.0262172 7:-0.916909 8:-0.432606 9:0.449522 10:-1 11:-1 12:-1 13:-1 14:-1 15:-0.999951 
-0.2812289649805851 1:-0.993781 2:-0.0516674 3:0.283333 4:-0.120387 5:0.381971 6:-0.0611735 7:-1 8:0.182449 9:0.0259659 10:-1 11:-1 12:-1 13:-1 14:-1 15:-1 
-0.5100360006012625 1:-0.99437 2:-0.447909 3:0.247222 4:-0.00968303 5:0.389289 6:-0.113608 7:-0.97715 8:0.0916656 9:0.0781055 10:-1 11:-1 12:-1 13:-1 14:-1 15:-1 
0.9767809986806198 1:-0.99386 2:-0.361758 3:0.858333 4:-0.208514 5:0.364231 6:-0.850187 7:-0.436228 8:-1 9:0.436228 10:-0.971014 11:-1 12:-1 13:-1 14:-1 15:-1 
2 1:-0.993961 2:-0.33578 3:0.847222 4:-0.293398 5:0.650737 6:-0.850187 7:0.454092 8:-0.891817 9:-0.543207 10:-1 11:-1 12:-1 13:-1 14:-1 15:-1 
0.2546341041089776 1:-0.993884 2:-0.338453 3:0.841667 4:-0.240869 5:0.539306 6:-0.850187 7:0.483797 8:-1 9:-0.483797 10:-1 11:-1 12:-1 13:-1 14:-1 15:-1 
2 1:-0.994067 2:-0.338329 3:0.852778 4:-0.209009 5:0.471893 6:-0.852684 7:0.44516 8:-1 9:-0.44516 10:-0.985507 11:-1 12:-1 13:-1 14:-1 15:-1 
2 1:-0.994071 2:-0.364194 3:0.855556 4:-0.249963 5:0.545959 6:-0.852684 7:0.354799 8:-0.890304 9:-0.44516 10:-0.985507 11:-1 12:-1 13:-1 14:-1 15:-1 
0.1201120233030151 1:-0.993998 2:-0.368432 3:0.855556 4:-0.216389 5:0.492848 6:-0.852684 7:0.415039 8:-0.853738 9:-0.535314 10:-0.985507 11:-1 12:-1 13:-1 14:-1 15:-1 
-1.7219147916791 1:-0.993177 2:-0.170784 3:0.911111 4:-0.253589 5:0.56514 6:-0.850187 7:-0.287703 8:-0.243475 9:-0.33548 10:-1 11:-1 12:-1 13:-1 14:-1 15:-0.999975 
2 1:-0.993676 2:-0.258114 3:0.894444 4:-0.357214 5:0.584876 6:-0.850187 7:-0.347113 8:-0.099483 9:-0.394682 10:-1 11:-1 12:-1 13:-1 14:-1 15:-1 
-2 1:-0.993814 2:-0.425823 3:0.872222 4:-0.253128 5:0.53598 6:-0.850187 7:0.00893228 8:-0.423528 9:-0.483797 10:-1 11:-1 12:-1 13:-1 14:-1 15:-1 
2 1:-0.993842 2:-0.370896 3:0.872222 4:-0.266647 5:0.557157 6:-0.850187 7:0.00893228 8:-0.639642 9:-0.305775 10:-1 11:-1 12:-1 13:-1 14:-1 15:-1 
0.3666369221006142 1:-0.993667 2:-0.223622 3:0.852778 4:-0.125999 5:0.145138 6:-0.852684 7:-0.668882 8:-0.890304 9:0.578521 10:-1 11:-1 12:-1 13:-1 14:-1 15:-1 
0.6848378721647228 1:-0.993516 2:-0.288194 3:0.861111 4:-0.211128 5:-0.198581 6:-0.850187 7:0.186955 8:-1 9:-0.186955 10:-0.985507 11:-1 12:-1 13:-1 14:-1 15:-1 
0.2295694723010896 1:-0.993535 2:-0.288194 3:0.85 4:-0.218586 5:-0.307019 6:-0.850187 7:0.60241 8:-1 9:-0.60241 10:-1 11:-1 12:-1 13:-1 14:-1 15:-0.999975 
0.2212515933722723 1:-0.993483 2:-0.288194 3:0.866667 4:-0.176095 5:-0.333629 6:-0.850187 7:-0.258205 8:-1 9:0.258205 10:-1 11:-1 12:-1 13:-1 14:-1 15:-1 
0.2426435874734497 1:-0.993463 2:-0.202632 3:0.855556 4:-0.355538 5:0.616476 6:-0.850187 7:0.27607 8:-1 9:-0.27607 10:-0.985507 11:-1 12:-1 13:-1 14:-1 15:-1 
0.08609075184161216 1:-0.993549 2:-0.27714 3:0.877778 4:-0.171525 5:-0.265883 6:-0.850187 7:-0.287703 8:-0.639642 9:-0.00893228 10:-0.869565 11:-1 12:-1 13:-1 14:-1 15:-1 
0.1939968228992308 1:-0.993557 2:-0.261031 3:0.891667 4:-0.209635 5:-0.12008 6:-0.862672 7:-0.23307 8:-0.340562 9:-0.310345 10:-0.956522 11:-1 12:-1 13:-1 14:-1 15:-1 
-2 1:-0.993559 2:-0.310564 3:0.866667 4:-0.278793 5:-0.115312 6:-0.850187 7:-0.16909 8:-0.315597 9:-0.394682 10:-1 11:-1 12:-1 13:-1 14:-1 15:-1 
-0.538223115533719 1:-0.993554 2:-0.273014 3:0.858333 4:-0.224595 5:-0.167424 6:-0.850187 7:-0.0799751 8:-0.243475 9:-0.543207 10:-1 11:-1 12:-1 13:-1 14:-1 15:-1 
2 1:-0.993526 2:-0.404044 3:0.836111 4:-0.2331 5:-0.370662 6:-0.850187 7:-0.16909 8:-0.783886 9:-0.00893228 10:-1 11:-1 12:-1 13:-1 14:-1 15:-1 
-1.148416200995074 1:-0.993541 2:-0.426172 3:0.855556 4:-0.254525 5:-0.375873 6:-0.850187 7:-0.16909 8:-0.747825 9:-0.0386373 10:-1 11:-1 12:-1 13:-1 14:-1 15:-1 
-0.5882899559056941 1:-0.993601 2:-0.246966 3:0.9 4:-0.231494 5:0.760838 6:-0.88764 7:0.321978 8:-0.633085 9:-0.624013 10:-0.985507 11:-1 12:-1 13:-1 14:-1 15:-1 
-0.1782053644819882 1:-0.99372 2:-0.214918 3:0.883333 4:-0.251076 5:0.875929 6:-0.88764 7:0.510802 8:-0.724877 9:-0.737432 10:-1 11:-1 12:-1 13:-1 14:-1 15:-1 
0.2081512763249284 1:-0.993531 2:-0.305036 3:0.866667 4:-0.204135 5:-0.026167 6:-0.850187 7:0.127752 8:-0.891817 9:-0.21666 10:-0.855072 11:-1 12:-1 13:-1 14:-1 15:-0.999827 
0.1018215706125806 1:-0.993498 2:-0.300647 3:0.872222 4:-0.200649 5:0.0337066 6:-0.850187 7:0.305775 8:-0.747825 9:-0.513502 10:-0.913043 11:-1 12:-1 13:-1 14:-1 15:-0.999827 
-1.27473184881309 1:-0.993529 2:-0.230516 3:0.852778 4:-0.230887 5:-0.0238386 6:-0.850187 7:-0.139385 8:-0.747825 9:-0.0683423 10:-1 11:-1 12:-1 13:-1 14:-1 15:-1 
0.9532606599320524 1:-0.993434 2:-0.211188 3:0.9 4:-0.174645 5:0.330524 6:-0.850187 7:-1 8:-0.027361 9:0.198795 10:-1 11:-1 12:-1 13:-1 14:-1 15:-1 
1.019797849065564 1:-0.993251 2:-0.226517 3:0.855556 4:-0.206706 5:0.536645 6:-0.850187 7:0.127752 8:-1 9:-0.127752 10:-0.956522 11:-1 12:-1 13:-1 14:-1 15:-0.999951 
2 1:-0.993922 2:-0.351133 3:0.838889 4:-0.283421 5:0.811842 6:-0.850187 7:0.513502 8:-1 9:-0.513502 10:-1 11:-1 12:-1 13:-1 14:-1 15:-1 
0.6595359720238921 1:-0.99384 2:-0.323632 3:0.833333 4:-0.310685 5:0.942677 6:-0.850187 7:0.572705 8:-1 9:-0.572705 10:-1 11:-1 12:-1 13:-1 14:-1 15:-1 
0.6229203341819783 1:-0.993872 2:-0.290461 3:0.844444 4:-0.274467 5:0.872491 6:-0.850187 7:0.454092 8:-1 9:-0.454092 10:-1 11:-1 12:-1 13:-1 14:-1 15:-1 
-0.009090656112861561 1:-0.993643 2:-0.314071 3:0.844444 4:-0.233288 5:-0.198359 6:-0.860175 7:0.479227 8:-1 9:-0.479227 10:-1 11:-0.875 12:-0.875 13:-1 14:-1 15:-1 
-0.06277995527299776 1:-0.993612 2:-0.222296 3:0.841667 4:-0.21113 5:-0.351037 6:-0.860175 7:0.44786 8:-1 9:-0.44786 10:-1 11:-0.875 12:-0.875 13:-1 14:-1 15:-1 
1.766272709820527 1:-0.993809 2:-0.345619 3:0.861111 4:-0.214835 5:0.449496 6:-0.850187 7:-0.139385 8:-1 9:0.139385 10:-1 11:-1 12:-1 13:-1 14:-1 15:-1 
0.7917378040446006 1:-0.993533 2:-0.24917 3:0.891667 4:-0.169537 5:0.45005 6:-0.850187 7:-0.317408 8:-0.856008 9:0.198795 10:-0.985507 11:-1 12:-1 13:-1 14:-1 15:-1 
0.7409516715966813 1:-0.993776 2:-0.28124 3:0.880556 4:-0.144522 5:0.538641 6:-0.850187 7:0.15725 8:-1 9:-0.15725 10:-1 11:-1 12:-1 13:-1 14:-1 15:-1 
1.980362459006211 1:-0.993532 2:-0.288194 3:0.847222 4:-0.252671 5:-0.362679 6:-0.850187 7:0.394682 8:-1 9:-0.394682 10:-0.985507 11:-1 12:-1 13:-1 14:-1 15:-1 
0.217606924598243 1:-0.993564 2:-0.238443 3:0.886111 4:-0.24069 5:0.550061 6:-0.850187 7:-0.465933 8:-0.207414 9:-0.186955 10:-1 11:-1 12:-1 13:-1 14:-1 15:-1 
1.521915048108667 1:-0.993691 2:-0.296673 3:0.855556 4:-0.19795 5:0.41346 6:-0.850187 7:-0.0207727 8:-0.856008 9:-0.0980474 10:-1 11:-1 12:-1 13:-1 14:-1 15:-1 
0.01786350372505135 1:-0.993741 2:-0.246184 3:0.847222 4:-0.218424 5:0.516576 6:-0.850187 7:0.127752 8:-1 9:-0.127752 10:-1 11:-1 12:-1 13:-1 14:-1 15:-1 
0.5583815197511364 1:-0.993565 2:-0.177027 3:0.891667 4:-0.230461 5:0.45127 6:-0.852684 7:-0.51828 8:-0.634598 9:0.217283 10:-1 11:-1 12:-1 13:-1 14:-1 15:-1 
-2 1:-0.994199 2:-0.363112 3:0.411111 4:-0.137007 5:0.529992 6:-0.350811 7:-0.330702 8:-0.411676 9:-0.154134 10:-1 11:-1 12:-1 13:-1 14:-1 15:-1 
-1.819577637882073 1:-0.994065 2:-0.31374 3:0.419444 4:-0.0692152 5:0.493292 6:-0.355805 7:-0.426464 8:-0.491867 9:0.00789364 10:-1 11:-1 12:-1 13:-1 14:-1 15:-1 
-2 1:-0.993973 2:-0.213971 3:0.436111 4:-0.105015 5:0.500166 6:-0.338327 7:-0.395721 8:-0.413189 9:-0.087661 10:-1 11:-1 12:-1 13:-1 14:-1 15:-1 
-1.278229988504619 1:-0.993796 2:-0.214881 3:0.344444 4:-0.233738 5:0.42355 6:-0.283396 7:-0.587246 8:-0.507502 9:0.181762 10:-1 11:-1 12:-1 13:-1 14:-1 15:-1 
0.1374664029162516 1:-0.992794 2:-0.0573658 3:0.655556 4:-0.105139 5:0.489855 6:-0.0961298 7:-0.598047 8:-0.0984743 9:-0.144786 10:-1 11:-1 12:-1 13:-1 14:-1 15:-0.999778 
0.01050066694330399 1:-0.99354 2:-0.4011 3:0.45 4:-0.153427 5:0.381861 6:-0.240949 7:-0.695679 8:-0.638633 9:0.398006 10:-1 11:-1 12:-0.875 13:-1 14:-1 15:-1 
0.3543709594711534 1:-0.99425 2:-0.121967 3:0.372222 4:-0.301444 5:0.522231 6:-0.0961298 7:-0.508517 8:-0.484806 9:0.0841296 10:-1 11:-1 12:-1 13:-1 14:-1 15:-1 
0.1340690401136757 1:-0.993503 2:-0.283336 3:0.35 4:-0.00856553 5:0.47533 6:-0.151061 7:-0.507478 8:-0.171353 9:-0.175114 10:-1 11:-1 12:-1 13:-1 14:-1 15:-1 
-2 1:-0.993485 2:-0.177567 3:0.455556 4:-0.147595 5:0.512474 6:-0.323346 7:-0.423349 8:-0.434624 9:-0.0423764 10:-1 11:-1 12:-1 13:-1 14:-1 15:-1 
2 1:-0.993083 2:-0.105522 3:0.344444 4:-0.134538 5:0.433751 6:-0.0961298 7:-0.64811 8:-0.491615 9:0.229331 10:-1 11:-1 12:-1 13:-1 14:-1 15:-1 
-0.130462269254171 1:-0.993521 2:-0.0381108 3:0.35 4:0.248891 5:0.353254 6:-0.0961298 7:-0.94973 8:0.0641785 9:0.0731201 10:-1 11:-1 12:-1 13:-1 14:-1 15:-1 
2 1:-0.99345 2:-0.255295 3:0.386111 4:0.111092 5:0.256791 6:-0.0961298 7:-0.692979 8:-0.82373 9:0.547777 10:-1 11:-1 12:-1 13:-1 14:-1 15:-1 
-0.01954539808382093 1:-0.994023 2:-0.0610072 3:0.402778 4:0.0849002 5:-0.246923 6:-0.253433 7:-0.159742 8:-0.543059 9:-0.216867 10:-0.956522 11:-0.875 12:-0.5 13:-0.75 14:-0.916667 15:-1 
0.1410519185456013 1:-0.993035 2:0.0299305 3:0.341667 4:0.149572 5:0.398936 6:-0.0961298 7:-0.6371 8:-0.457572 9:0.190278 10:-1 11:-1 12:-1 13:-1 14:-1 15:-1 
-1.761491842012816 1:-0.993636 2:-0.277367 3:0.375 4:-0.119101 5:0.388624 6:-0.0961298 7:-0.642709 8:-0.539024 9:0.262983 10:-1 11:-1 12:-1 13:-1 14:-1 15:-1 
-0.162963738942912 1:-0.993849 2:-0.288194 3:0.572222 4:-0.183113 5:-0.155117 6:-0.458177 7:-0.579144 8:-0.0223175 9:-0.226215 10:-1 11:-0.75 12:-0.75 13:-0.75 14:-1 15:-0.998198 
-0.223129793187669 1:-0.993966 2:-0.0543723 3:0.316667 4:0.0355165 5:0.342167 6:-0.0961298 7:-0.69838 8:-0.200101 9:0.0394682 10:-1 11:-1 12:-1 13:-1 14:-1 15:-1 
-2 1:-0.993757 2:-0.193689 3:0.572222 4:-0.0529376 5:0.353476 6:-0.503121 7:-0.463232 8:-0.251797 9:-0.152887 10:-1 11:-1 12:-1 13:-1 14:-1 15:-1 
1.029378209731538 1:-0.993716 2:-0.222077 3:0.461111 4:-0.136744 5:0.651181 6:-0.363296 7:-0.435604 8:-0.267179 9:-0.168052 10:-0.985507 11:-0.875 12:-0.875 13:-1 14:-1 15:-1 
0.4455634967480834 1:-0.993656 2:-0.310019 3:0.461111 4:-0.0218809 5:0.508482 6:-0.363296 7:-0.482551 8:-0.362502 9:-0.0425841 10:-0.971014 11:-0.875 12:-0.875 13:-1 14:-1 15:-1 
-0.03024719896502386 1:-0.993815 2:-0.285524 3:0.397222 4:0.087248 5:0.509036 6:-0.245943 7:-0.826963 8:0.252805 9:-0.205027 10:-0.942029 11:-0.875 12:-0.875 13:-0.75 14:-1 15:-1 
-0.03930541040328614 1:-0.993765 2:-0.273892 3:0.383333 4:0.264168 5:0.440847 6:-0.253433 7:-0.973203 8:0.46085 9:-0.230162 10:-0.985507 11:-0.875 12:-1 13:-0.75 14:-1 15:-1 
1.484214887777234 1:-0.992823 2:-0.177481 3:0.291667 4:-0.00105021 5:0.419004 6:-0.0961298 7:-0.743041 8:-0.484806 9:0.318654 10:-1 11:-1 12:-1 13:-1 14:-1 15:-1 
2 1:-0.99347 2:-0.272766 3:0.433333 4:-0.100254 5:0.41967 6:-0.235955 7:-0.658081 8:-0.52112 9:0.263814 10:-1 11:-1 12:-1 13:-1 14:-1 15:-1 
0.1350161058000739 1:-0.990427 2:-0.0310882 3:0.269444 4:0.135161 5:0.283623 6:-0.131086 7:-0.837557 8:-0.647712 9:0.547362 10:-0.434783 11:-1 12:-1 13:-1 14:-1 15:-0.999136 
0.6872760831379366 1:-0.993526 2:-0.188545 3:0.341667 4:0.118196 5:0.491961 6:-0.0961298 7:-0.514125 8:-0.42378 9:0.0394682 10:-1 11:-1 12:-1 13:-1 14:-1 15:-1 
-0.2297125624764417 1:-0.994101 2:-0.389741 3:0.413889 4:0.0404938 5:0.619581 6:-0.298377 7:-0.507478 8:-0.0727525 9:-0.256336 10:-0.985507 11:-0.875 12:-1 13:-1 14:-1 15:-1 
-0.03067658371324029 1:-0.994148 2:-0.293947 3:0.425 4:-0.0902812 5:0.607163 6:-0.283396 7:-0.398421 8:-0.18497 9:-0.272954 10:-1 11:-0.875 12:-0.875 13:-0.5 14:-1 15:-1 
-0.8700635636790143 1:-0.994263 2:-0.226384 3:0.366667 4:-0.0589359 5:0.642311 6:-0.235955 7:-0.44786 8:-0.194049 9:-0.216037 10:-0.971014 11:-1 12:-0.875 13:-1 14:-1 15:-1 
-0.7602872427595814 1:-0.994279 2:-0.270741 3:0.438889 4:0.0213774 5:0.524116 6:-0.360799 7:-0.398629 8:-0.260623 9:-0.210428 10:-0.971014 11:-1 12:-1 13:-1 14:-1 15:-1 
-0.5204162116258991 1:-0.994324 2:-0.227329 3:0.422222 4:-0.0336402 5:0.651735 6:-0.358302 7:-0.268592 8:-0.319884 9:-0.291442 10:-1 11:-0.625 12:-0.875 13:-1 14:-1 15:-1 
-0.2517506864682885 1:-0.994179 2:-0.209104 3:0.291667 4:-0.153742 5:0.480098 6:-0.138577 7:-0.637308 8:-0.417476 9:0.157457 10:-1 11:-1 12:-1 13:-1 14:-1 15:-1 
0.2605319719944337 1:-0.99419 2:-0.351887 3:0.316667 4:-0.215845 5:0.664819 6:-0.0961298 7:-0.48629 8:-0.389989 9:-0.0162027 10:-1 11:-1 12:-1 13:-1 14:-1 15:-0.999975 
0.03036588528099213 1:-0.992776 2:-0.107832 3:0.494444 4:0.0969872 5:0.28451 6:-0.0961298 7:-0.932904 8:-0.728912 9:0.709597 10:-1 11:-1 12:-1 13:-1 14:-1 15:-1 
-0.8660467951931093 1:-0.993815 2:-0.258648 3:0.433333 4:-0.244595 5:-0.157667 6:-0.340824 7:-0.401122 8:-0.226831 9:-0.235771 10:-1 11:-1 12:-1 13:-1 14:-1 15:-1 
-0.2353783406053505 1:-0.993777 2:-0.336798 3:0.422222 4:-0.194368 5:-0.185719 6:-0.348315 7:-0.394474 8:-0.339301 9:-0.149771 10:-0.985507 11:-0.875 12:-1 13:-1 14:-1 15:-1 
0.7928882628058866 1:-0.993784 2:-0.153515 3:0.311111 4:-0.419779 5:0.577226 6:-0.0961298 7:-0.547777 8:-0.0712394 9:-0.217283 10:-1 11:-1 12:-1 13:-1 14:-1 15:-1 
0.1257065231927179 1:-0.99402 2:-0.107211 3:0.236111 4:0.0421566 5:0.364564 6:-0.0961298 7:-0.424803 8:-0.613668 9:0.106564 10:-0.985507 11:-1 12:-1 13:-1 14:-1 15:-1 
0.2197943276170957 1:-0.99341 2:-0.288194 3:0.480556 4:0.0910321 5:0.0524448 6:-0.0986267 7:-0.731201 8:-0.646451 9:0.440174 10:-1 11:-1 12:-1 13:-1 14:-1 15:-1 
1.500411368077041 1:-0.993449 2:-0.288194 3:0.405556 4:0.0611996 5:-0.0466792 6:-0.0961298 7:-0.519734 8:-0.572816 9:0.168052 10:-1 11:-1 12:-1 13:-1 14:-1 15:-0.999951 
-1.554511678400587 1:-0.99337 2:-0.288194 3:0.380556 4:0.138272 5:-0.038807 6:-0.0961298 7:-0.581221 8:-0.579624 9:0.23494 10:-1 11:-1 12:-1 13:-1 14:-1 15:-1 
-2 1:-0.994096 2:-0.349648 3:0.380556 4:-0.168094 5:0.405256 6:-0.278402 7:-0.909639 8:0.172362 9:-0.0560864 10:-1 11:-1 12:-1 13:-1 14:-1 15:-1 
-2 1:-0.993962 2:-0.272384 3:0.347222 4:-0.204066 5:0.496396 6:-0.273408 7:-0.503116 8:-0.29618 9:-0.0766514 10:-1 11:-1 12:-1 13:-1 14:-1 15:-1 
-1.702152871723119 1:-0.994442 2:-0.258223 3:0.225 4:-0.0374879 5:0.458698 6:-0.131086 7:-0.48359 8:-0.225066 9:-0.154757 10:-1 11:-1 12:-1 13:-1 14:-1 15:-1 
0.5680598831604798 1:-0.993665 2:-0.347656 3:0.855556 4:-0.245056 5:0.403038 6:-0.850187 7:-0.61425 8:-0.099483 9:-0.127752 10:-0.956522 11:-1 12:-0.875 13:-1 14:-1 15:-1 
-2 1:-0.993642 2:-0.354355 3:0.847222 4:-0.262127 5:0.435858 6:-0.790262 7:-0.778978 8:0.287606 9:-0.281678 10:-1 11:-1 12:-1 13:-1 14:-1 15:-1 
-2 1:-0.993594 2:-0.35179 3:0.844444 4:-0.261273 5:0.417341 6:-0.790262 7:-0.889489 8:0.368302 9:-0.237432 10:-1 11:-1 12:-1 13:-1 14:-1 15:-1 
-2 1:-0.993493 2:-0.396892 3:0.858333 4:-0.277172 5:0.405477 6:-0.790262 7:-1 8:0.421763 9:-0.171167 10:-1 11:-1 12:-1 13:-1 14:-1 15:-1 
-2 1:-0.993665 2:-0.413499 3:0.880556 4:-0.246008 5:0.384522 6:-0.790262 7:-1 8:0.153448 9:0.0498546 10:-1 11:-1 12:-1 13:-1 14:-1 15:-1 
-2 1:-0.993523 2:-0.362335 3:0.813889 4:-0.217078 5:0.375984 6:-0.790262 7:-0.756959 8:0.341319 9:-0.347943 10:-1 11:-1 12:-1 13:-1 14:-1 15:-1 
0.3081126122819674 1:-0.9939 2:-0.396922 3:0.888889 4:-0.252274 5:0.470008 6:-0.852684 7:-0.427919 8:-0.196066 9:-0.234317 10:-1 11:-1 12:-1 13:-1 14:-1 15:-1 
0.9376729445307775 1:-0.993858 2:-0.398434 3:0.9 4:-0.261052 5:0.533651 6:-0.852684 7:-0.427919 8:-0.451772 9:-0.0236809 10:-1 11:-1 12:-1 13:-1 14:-1 15:-1 
-2 1:-0.993859 2:-0.392732 3:0.927778 4:-0.221874 5:0.350039 6:-0.852684 7:-1 8:0.352162 9:-0.113835 10:-1 11:-1 12:-1 13:-1 14:-1 15:-1 
-2 1:-0.993186 2:-0.353921 3:0.869444 4:-0.186416 5:0.433197 6:-0.792759 7:-1 8:-0.0510654 9:0.218322 10:-0.971014 11:-1 12:-1 13:-1 14:-1 15:-1 
-0.05564089382426227 1:-0.993082 2:-0.42446 3:0.872222 4:-0.125785 5:-0.068522 6:-0.790262 7:-1 8:0.234144 9:-0.0166182 10:-1 11:-0.875 12:-0.875 14:-0.833333 15:-0.995235 
-0.4753291965290811 1:-0.993744 2:-0.380833 3:0.877778 4:-0.261989 5:0.454041 6:-0.790262 7:-0.801205 8:-0.436641 9:0.337142 10:-1 11:-1 12:-1 13:-1 14:-1 15:-0.999975 
-0.04338455006867111 1:-0.993492 2:-0.266383 3:0.841667 4:-0.268008 5:0.384189 6:-0.790262 7:-1 8:0.475476 9:-0.215413 10:-1 11:-1 12:-1 13:-1 14:-1 15:-1 
-2 1:-0.993474 2:-0.283639 3:0.825 4:-0.269809 5:0.423107 6:-0.790262 7:-0.86747 8:0.55592 9:-0.414416 10:-1 11:-1 12:-1 13:-1 14:-1 15:-1 
-2 1:-0.99352 2:-0.299693 3:0.866667 4:-0.237379 5:0.426987 6:-0.790262 7:-1 8:0.475476 9:-0.215413 10:-1 11:-1 12:-1 13:-1 14:-1 15:-1 
-0.4963427844673136 1:-0.993656 2:-0.297149 3:0.894444 4:-0.213125 5:0.458587 6:-0.790262 7:-0.602202 8:0.314588 9:-0.480681 10:-1 11:-1 12:-1 13:-1 14:-1 15:-1 
-2 1:-0.993788 2:-0.386154 3:0.811111 4:-0.214978 5:0.319548 6:-0.792759 7:-0.866016 8:0.11184 9:-0.0498546 10:-1 11:-1 12:-1 13:-1 14:-1 15:-1 
-2 1:-0.993349 2:-0.271677 3:0.797222 4:-0.145863 5:0.464575 6:-0.790262 7:-0.513918 8:-0.0611524 9:-0.259659 10:-1 11:-1 12:-1 13:-1 14:-1 15:-1 
0.7902038560323358 1:-0.993153 2:-0.116071 3:0.819444 4:-0.162918 5:0.508371 6:-0.790262 7:-0.86747 8:0.287606 9:-0.193394 10:-1 11:-1 12:-1 13:-1 14:-1 15:-1 
-2 1:-0.993271 2:-0.265143 3:0.833333 4:-0.150565 5:0.401818 6:-0.790262 7:-0.646448 8:0.0462741 9:-0.215413 10:-1 11:-1 12:-1 13:-1 14:-1 15:-1 
-2 1:-0.993459 2:-0.325311 3:0.858333 4:-0.21978 5:0.534206 6:-0.80774 7:-1 8:0.188501 9:0.0209805 10:-0.942029 11:-1 12:-1 13:-1 14:-1 15:-1 
-0.1961794341453644 1:-0.993661 2:-0.349234 3:0.861111 4:-0.194109 5:0.450937 6:-0.810237 7:-0.54113 8:-0.20817 9:-0.111134 10:-0.913043 11:-0.75 12:-0.875 13:-1 14:-1 15:-1 
-1.078778382415692 1:-0.993401 2:-0.288194 3:0.902778 4:-0.189673 5:-0.0714048 6:-0.790262 7:-0.823224 8:-0.00743916 9:0.00560864 10:-0.942029 11:-1 12:-1 13:-1 14:-1 15:-1 
-0.6663456391561965 1:-0.993366 2:-0.288194 3:0.886111 4:-0.152797 5:0.0268322 6:-0.790262 7:-1 8:-0.463372 9:0.557956 10:-1 11:-1 12:-1 13:-1 14:-1 15:-1 
-2 1:-0.993559 2:-0.32444 3:0.819444 4:-0.236259 5:0.434527 6:-0.790262 7:-0.557956 8:-0.543815 9:0.182385 10:-1 11:-1 12:-1 13:-1 14:-1 15:-1 
-2 1:-0.993508 2:-0.399002 3:0.836111 4:-0.217267 5:0.0794988 6:-0.790262 7:-0.889489 8:-0.087883 9:0.138139 10:-1 11:-1 12:-1 13:-1 14:-1 15:-1 
-1.65463612886021 1:-0.993485 2:-0.360358 3:0.838889 4:-0.204618 5:0.0411354 6:-0.790262 7:-0.513918 8:-0.40991 9:0.0276278 10:-1 11:-1 12:-1 13:-1 14:-1 15:-1 
-0.3234497778507898 1:-0.993505 2:-0.312841 3:0.830556 4:-0.183414 5:0.0124182 6:-0.790262 7:-0.359161 8:-0.19531 9:-0.303905 10:-1 11:-1 12:-1 13:-1 14:-1 15:-1 
-0.2631969307882838 1:-0.993498 2:-0.387522 3:0.825 4:-0.16139 5:-0.0440182 6:-0.790262 7:-0.491691 8:-0.436641 9:0.0276278 10:-1 11:-1 12:-1 13:-1 14:-1 15:-1 
-1.62279138859748 1:-0.993485 2:-0.332294 3:0.833333 4:-0.134109 5:0.0294933 6:-0.790262 7:-0.756959 8:-0.302484 9:0.182385 10:-1 11:-1 12:-1 13:-1 14:-1 15:-1 
0.1916546544502712 1:-0.993419 2:-0.351912 3:0.908333 4:-0.19229 5:-0.118195 6:-0.832709 7:-1 8:-0.0830917 9:0.244703 10:-0.942029 11:-1 12:-1 13:-1 14:-1 15:-1 
-0.05301476823612687 1:-0.993529 2:-0.404103 3:0.855556 4:-0.171189 5:-0.0750638 6:-0.792759 7:-1 8:0.301475 9:-0.0720814 10:-0.869565 11:-0.625 12:-0.875 13:-1 14:-1 15:-1 
0.2525012522992049 1:-0.993467 2:-0.360064 3:0.927778 4:-0.244646 5:-0.141036 6:-0.907615 7:-0.690694 8:-0.517085 9:0.292896 10:-1 11:-1 12:-1 13:-1 14:-1 15:-1 
-0.1455882325516193 1:-0.99344 2:-0.346734 3:0.844444 4:-0.199881 5:0.398603 6:-0.80025 7:-1 8:0.232884 9:-0.0155796 10:-0.985507 11:-0.875 12:-0.875 13:-1 14:-1 15:-1 
-0.5538135698031084 1:-0.993434 2:-0.267246 3:0.877778 4:-0.183985 5:0.325202 6:-0.855181 7:-0.175114 8:-0.777582 9:-0.00810137 10:-1 11:-1 12:-1 13:-1 14:-1 15:-1 
0.2559217204618082 1:-0.993486 2:-0.520886 3:0.797222 4:-0.229033 5:-0.0689655 6:-0.790262 7:-0.712713 8:-0.087883 9:-0.0386373 10:-1 11:-1 12:-1 13:-1 14:-1 15:-1 
-0.3932714809460581 1:-0.99349 2:-0.516434 3:0.8 4:-0.190221 5:-0.0235059 6:-0.790262 7:-0.823224 8:-0.543815 9:0.447445 10:-1 11:-1 12:-1 13:-1 14:-1 15:-1 
-0.2517195337737732 1:-0.993453 2:-0.466907 3:0.808333 4:-0.166716 5:0.0794988 6:-0.790262 7:-0.911508 8:0.234144 9:-0.104902 10:-1 11:-1 12:-1 13:-1 14:-1 15:-1 
-0.01214803150009896 1:-0.993351 2:-0.340234 3:0.8 4:-0.177338 5:0.0568799 6:-0.792759 7:-0.79892 8:-0.755895 9:0.598047 10:-1 11:-1 12:-1 13:-1 14:-1 15:-1 
-0.508518810119763 1:-0.993277 2:-0.334613 3:0.805556 4:-0.201873 5:-0.0067635 6:-0.792759 7:-0.664936 8:-0.701677 9:0.419194 10:-1 11:-1 12:-1 13:-1 14:-1 15:-1 
0.6415036338555248 1:-0.993132 2:-0.238436 3:0.847222 4:-0.133814 5:0.32365 6:-0.790262 7:-1 8:0.582903 9:-0.303905 10:-1 11:-1 12:-1 13:-1 14:-1 15:-1 
-2 1:-0.993682 2:-0.359533 3:0.861111 4:-0.24383 5:0.641202 6:-0.845194 7:-0.047985 8:-0.369562 9:-0.471334 10:-1 11:-1 12:-1 13:-1 14:-1 15:-1 
-0.1617210180603982 1:-0.993667 2:-0.323344 3:0.883333 4:-0.161692 5:0.54862 6:-0.842697 7:-1 8:0.485311 9:-0.223515 10:-1 11:-0.875 12:-1 13:-1 14:-1 15:-1 
-2 1:-0.993598 2:-0.370333 3:0.808333 4:-0.206026 5:0.624238 6:-0.790262 7:-0.359161 8:-0.0341697 9:-0.436435 10:-1 11:-1 12:-1 13:-1 14:-1 15:-1 
-2 1:-0.993315 2:-0.387308 3:0.916667 4:-0.178317 5:0.242377 6:-0.790262 7:-1 8:-0.651242 9:0.712713 10:-1 11:-1 12:-1 13:-1 14:-1 15:-1 
-0.3760545451529105 1:-0.993428 2:-0.288194 3:0.869444 4:-0.220451 5:-0.152789 6:-0.830212 7:-0.387412 8:-0.515067 9:-0.0120482 10:-0.956522 11:-1 12:-1 13:-1 14:-1 15:-1 
-1.875424870483062 1:-0.993396 2:-0.345893 3:0.888889 4:-0.0940853 5:0.336068 6:-0.790262 7:-1 8:0.260875 9:-0.0386373 10:-0.942029 11:-1 12:-1 13:-1 14:-1 15:-1 
-1.201109284403446 1:-0.993393 2:-0.288194 3:0.830556 4:-0.163305 5:-0.0845992 6:-0.790262 7:-0.823224 8:-0.141596 9:0.11612 10:-1 11:-1 12:-1 13:-1 14:-1 15:-1 
-1.265883983636354 1:-0.993284 2:-0.336945 3:0.894444 4:-0.155319 5:0.350482 6:-0.790262 7:-0.756959 8:-0.543815 9:0.38118 10:-1 11:-1 12:-1 13:-1 14:-1 15:-1 
-2 1:-0.993361 2:-0.267071 3:0.861111 4:-0.269324 5:0.448941 6:-0.790262 7:-1 8:0.582903 9:-0.303905 10:-1 11:-1 12:-1 13:-1 14:-1 15:-1 
-1.337788084870813 1:-0.99333 2:-0.313418 3:0.886111 4:-0.23378 5:0.4261 6:-0.80774 7:-1 8:0.50725 9:-0.241587 10:-1 11:-1 12:-1 13:-1 14:-1 15:-1 
-2 1:-0.993514 2:-0.281387 3:0.833333 4:-0.262287 5:0.333518 6:-0.792759 7:-1 8:-0.186483 9:0.329871 10:-1 11:-1 12:-1 13:-1 14:-1 15:-1 
-2 1:-0.994233 2:-0.450533 3:0.769444 4:-0.233951 5:0.496286 6:-0.705368 7:-0.334649 8:-0.251292 9:-0.282094 10:-1 11:-1 12:-1 13:-1 14:-1 15:-1 
-2 1:-0.994219 2:-0.455003 3:0.775 4:-0.165123 5:0.476771 6:-0.705368 7:-0.0749896 8:-0.349893 9:-0.460532 10:-1 11:-1 12:-1 13:-1 14:-1 15:-1 
-0.8947498095280689 1:-0.994169 2:-0.437553 3:0.791667 4:-0.217431 5:0.4791 6:-0.705368 7:-0.0587869 8:-0.152944 9:-0.639177 10:-1 11:-1 12:-1 13:-1 14:-1 15:-1 
-2 1:-0.993887 2:-0.410229 3:0.741667 4:-0.330639 5:0.587094 6:-0.705368 7:-0.188617 8:-0.330223 9:-0.363108 10:-1 11:-1 12:-1 13:-1 14:-1 15:-1 
-2 1:-0.993636 2:-0.431095 3:0.805556 4:-0.176296 5:0.548287 6:-0.705368 7:-0.772746 8:-0.231623 9:0.139801 10:-1 11:-1 12:-1 13:-1 14:-1 15:-1 
0.3132152953281445 1:-0.993661 2:-0.352696 3:0.783333 4:-0.132084 5:0.537199 6:-0.705368 7:-0.107395 8:-0.822721 9:-0.0386373 10:-0.985507 11:-1 12:-1 13:-1 14:-1 15:-1 
-2 1:-0.994167 2:-0.46721 3:0.713889 4:-0.237326 5:0.460805 6:-0.705368 7:-0.496884 8:0.162275 9:-0.460532 10:-1 11:-1 12:-1 13:-1 14:-1 15:-1 
-0.4462572574196639 1:-0.99358 2:-0.16243 3:0.708333 4:-0.142297 5:0.579222 6:-0.705368 7:0.136061 8:-0.76346 9:-0.330702 10:-1 11:-1 12:-1 13:-1 14:-1 15:-1 
-1.802443724569386 1:-0.993528 2:-0.288194 3:0.794444 4:-0.1138 5:-0.112873 6:-0.705368 7:-0.123598 8:-0.803051 9:-0.0386373 10:-0.956522 11:-1 12:-1 13:-1 14:-1 15:-1 
-0.8228953994603749 1:-0.993518 2:-0.288194 3:0.794444 4:-0.105963 5:-0.073068 6:-0.705368 7:-0.302243 8:-0.606103 9:-0.0224346 10:-0.956522 11:-1 12:-1 13:-1 14:-1 15:-1 
-0.03827191254045693 1:-0.993679 2:-0.402099 3:0.822222 4:-0.263888 5:-0.369221 6:-0.835206 7:0.312007 8:-1 9:-0.312007 10:-0.985507 11:-1 12:-1 13:-1 14:-1 15:-1 
-2 1:-0.993471 2:-0.288194 3:0.777778 4:-0.148203 5:0.00255017 6:-0.705368 7:-0.902576 8:-0.290884 9:0.318446 10:-1 11:-1 12:-1 13:-1 14:-1 15:-1 
-0.09315593620870359 1:-0.993173 2:-0.109124 3:0.822222 4:-0.31363 5:0.404147 6:-0.705368 7:-1 8:-0.665112 9:0.724138 10:-1 11:-1 12:-1 13:-1 14:-1 15:-1 
-1.012623321656879 1:-0.993544 2:-0.288507 3:0.766667 4:-0.217855 5:0.0484533 6:-0.705368 7:-0.578106 8:-0.428571 9:0.107395 10:-1 11:-1 12:-1 13:-1 14:-1 15:-1 
-1.66813159506775 1:-0.993542 2:-0.327111 3:0.763889 4:-0.246126 5:0.092915 6:-0.705368 7:-0.448276 8:-0.389232 9:-0.05484 10:-1 11:-1 12:-1 13:-1 14:-1 15:-1 
-0.7855574614946176 1:-0.993563 2:-0.39759 3:0.858333 4:-0.200833 5:0.214325 6:-0.792759 7:-1 8:-0.891565 9:0.910677 10:-0.942029 11:-1 12:-1 13:-1 14:-1 15:-1 
-0.06715625823431989 1:-0.993622 2:-0.267762 3:0.936111 4:-0.265517 5:0.112429 6:-0.910112 7:-1 8:-0.232631 9:0.367885 10:-1 11:-1 12:-1 13:-1 14:-1 15:-1 
0.1123278601617297 1:-0.993653 2:-0.324925 3:0.813889 4:-0.114325 5:-0.0503382 6:-0.750312 7:-1 8:0.604842 9:-0.321978 10:-0.956522 11:-1 12:-1 13:-1 14:-1 15:-1 
-0.7800638680891456 1:-0.993667 2:-0.300796 3:0.897222 4:-0.215233 5:0.0467901 6:-0.872659 7:-0.863731 8:-0.131761 9:0.148733 10:-1 11:-1 12:-1 13:-1 14:-1 15:-1 
-1.952743757190692 1:-0.993565 2:-0.302643 3:0.958333 4:-0.24281 5:0.188491 6:-0.940075 7:-1 8:0.0384567 9:0.144578 10:-1 11:-1 12:-1 13:-1 14:-1 15:-1 
-2 1:-0.993368 2:-0.244447 3:0.95 4:-0.234604 5:0.556048 6:-0.925094 7:-1 8:-0.117387 9:0.272954 10:-1 11:-1 12:-1 13:-1 14:-1 15:-1 
-0.007697671333932627 1:-0.951631 2:-0.461059 3:0.866667 4:-0.0334787 5:0.320213 6:-0.705368 7:-0.334649 8:-0.822721 9:0.188617 10:-1 11:-1 12:-1 13:-1 14:-0.916667 15:-0.956274 
-0.7041531028682021 1:-0.993799 2:-0.33502 3:0.816667 4:-0.24161 5:0.662823 6:-0.780275 7:-0.448899 8:-0.176649 9:-0.229331 10:-0.985507 11:-1 12:-0.875 13:-1 14:-1 15:-1 
-2 1:-0.993576 2:-0.315845 3:0.894444 4:-0.206628 5:0.353032 6:-0.825218 7:-1 8:-0.401084 9:0.506647 10:-1 11:-1 12:-1 13:-1 14:-1 15:-1 
-0.1759407860456495 1:-0.993786 2:-0.225598 3:0.794444 4:-0.182149 5:0.627121 6:-0.762797 7:-0.485667 8:-0.0152566 9:-0.325509 10:-1 11:-0.875 12:-1 13:-1 14:-1 15:-1 
-0.4444049288585182 1:-0.993557 2:-0.259907 3:0.783333 4:-0.191677 5:-0.00587648 6:-0.705368 7:-0.626714 8:-0.428571 9:0.156211 10:-1 11:-1 12:-1 13:-1 14:-1 15:-1 
-0.0555950887212443 1:-0.992915 2:-0.207846 3:0.797222 4:-0.164225 5:0.475995 6:-0.705368 7:-0.707935 8:-0.172614 9:0.0261737 10:-0.971014 11:-1 12:-1 13:-1 14:-1 15:-1 
-2 1:-0.993222 2:-0.344838 3:0.763889 4:-0.159293 5:0.524227 6:-0.705368 7:-0.610511 8:-0.211953 9:-0.0386373 10:-1 11:-1 12:-1 13:-1 14:-1 15:-0.999951 
0.08667746704799191 1:-0.993826 2:-0.405498 3:0.741667 4:-0.244626 5:0.76483 6:-0.705368 7:0.0386373 8:-0.684781 9:-0.298297 10:-1 11:-1 12:-1 13:-1 14:-1 15:-1 
1.21072989159652 1:-0.993834 2:-0.410769 3:0.75 4:-0.238339 5:0.731123 6:-0.705368 7:-0.0911924 8:-0.665112 9:-0.18467 10:-1 11:-1 12:-1 13:-1 14:-1 15:-1 
-2 1:-0.993498 2:-0.288194 3:0.808333 4:-0.2212 5:-0.116532 6:-0.782772 7:-0.635854 8:-0.297945 9:0.0577482 10:-0.971014 11:-1 12:-1 13:-1 14:-1 15:-1 
-0.1748957476052999 1:-0.993475 2:-0.288194 3:0.877778 4:-0.22721 5:-0.270429 6:-0.862672 7:-0.00934774 8:-1 9:0.00934774 10:-1 11:-1 12:-1 13:-1 14:-1 15:-1 
-0.1169260606748236 1:-0.989811 2:-0.13398 3:0.822222 4:-0.227215 5:0.22752 6:-0.790262 7:-1 8:-1 9:1 10:-0.898551 11:-0.75 12:-0.875 13:-0.75 14:-0.666667 15:-1 
-0.5449894218803524 1:-0.993638 2:-0.183751 3:0.622222 4:0.0132393 5:-0.0847101 6:-0.518102 7:-0.672622 8:0.105535 9:-0.238263 10:-0.985507 11:-1 12:-1 13:-1 14:-1 15:-1 
-2 1:-0.994 2:-0.288373 3:0.655556 4:-0.280035 5:0.442067 6:-0.570537 7:-0.942875 8:0.316354 9:-0.141462 10:-1 11:-1 12:-1 13:-1 14:-1 15:-1 
-2 1:-0.994055 2:-0.34405 3:0.666667 4:-0.224578 5:0.45005 6:-0.600499 7:-1 8:0.453789 9:-0.197549 10:-1 11:-1 12:-1 13:-1 14:-1 15:-1 
-2 1:-0.993966 2:-0.257946 3:0.688889 4:-0.219639 5:0.510589 6:-0.578027 7:-0.930411 8:0.648216 9:-0.427503 10:-1 11:-1 12:-1 13:-1 14:-1 15:-1 
-0.65508233832107 1:-0.993028 2:-0.326665 3:0.672222 4:-0.117385 5:0.438851 6:-0.533084 7:-1 8:0.0881352 9:0.103656 10:-0.971014 11:-0.875 12:-1 13:-1 14:-1 15:-0.999852 
-0.6560449855256353 1:-0.992888 2:-0.199375 3:0.844444 4:-0.175287 5:0.523894 6:-0.510612 7:-0.808475 8:0.0283697 9:-0.0386373 10:-1 11:-1 12:-1 13:-1 14:-1 15:-0.999802 
-0.07430386435385362 1:-0.992573 2:-0.544938 3:0.722222 4:-0.0301782 5:-0.0218428 6:-0.510612 7:-1 8:0.371076 9:-0.129414 10:-0.971014 11:-0.75 12:-0.625 13:-0.75 14:-0.625 15:-0.980643 
-0.06567870943231292 1:-0.989944 2:-0.566457 3:0.713889 4:-0.000670132 5:-0.0301586 6:-0.510612 7:-1 8:0.187492 9:0.0218114 10:-0.971014 11:-0.75 12:-1 13:-0.75 14:-0.375 15:-0.961804 
-2 1:-0.994228 2:-0.256237 3:0.602778 4:-0.262247 5:0.5209 6:-0.510612 7:-0.505816 8:-0.0697264 9:-0.26049 10:-1 11:-1 12:-1 13:-1 14:-1 15:-1 
-2 1:-0.993403 2:-0.294988 3:0.788889 4:-0.0965542 5:0.303914 6:-0.510612 7:-1 8:-0.596016 9:0.667221 10:-1 11:-1 12:-1 13:-1 14:-0.958333 15:-1 
1.556532071150018 1:-0.993651 2:-0.331675 3:0.625 4:-0.0929469 5:0.441512 6:-0.510612 7:-1 8:0.517841 9:-0.250312 10:-1 11:-1 12:-1 13:-1 14:-1 15:-1 
-2 1:-0.993781 2:-0.326704 3:0.730556 4:-0.234731 5:0.431866 6:-0.585518 7:-1 8:0.203631 9:0.00851683 10:-1 11:-1 12:-1 13:-1 14:-1 15:-1 
-0.07328541670197852 1:-0.993333 2:-0.0904606 3:0.627778 4:0.16355 5:0.404036 6:-0.510612 7:-0.959701 8:0.542555 9:-0.310968 10:-1 11:-1 12:-1 13:-1 14:-1 15:-1 
0.8323099692575654 1:-0.993706 2:-0.394255 3:0.705556 4:-0.105527 5:-0.279854 6:-0.563046 7:-0.84275 8:-0.209431 9:0.191525 10:-1 11:-1 12:-1 13:-1 14:-1 15:-1 
2 1:-0.9935 2:-0.273223 3:0.791667 4:-0.09894 5:0.257567 6:-0.510612 7:-1 8:-0.583911 9:0.65725 10:-1 11:-1 12:-1 13:-1 14:-1 15:-1 
0.7947406093412724 1:-0.993441 2:-0.288194 3:0.761111 4:-0.0419078 5:-0.0344828 6:-0.510612 7:-0.858745 8:-0.0452654 9:0.0722892 10:-0.956522 11:-1 12:-1 13:-1 14:-1 15:-1 
0.6137480170904257 1:-0.993516 2:-0.288194 3:0.741667 4:-0.0446942 5:0.0250582 6:-0.510612 7:-1 8:-0.0329088 9:0.203365 10:-0.927536 11:-1 12:-1 13:-1 14:-1 15:-1 
0.289550177879483 1:-0.993541 2:-0.288194 3:0.741667 4:-0.0471004 5:-0.00554385 6:-0.510612 7:-1 8:0.150675 9:0.0521396 10:-0.942029 11:-1 12:-1 13:-1 14:-1 15:-1 
-0.3983730391707039 1:-0.993672 2:-0.359618 3:0.677778 4:-0.245957 5:0.00831578 6:-0.635456 7:-0.826963 8:-0.660572 9:0.547362 10:-0.956522 11:-0.875 12:-1 13:-1 14:-1 15:-1 
-2 1:-0.993456 2:-0.288194 3:0.744444 4:-0.231728 5:0.00343719 6:-0.625468 7:-1 8:-0.196318 9:0.337973 10:-1 11:-1 12:-1 13:-1 14:-1 15:-1 
-2 1:-0.993544 2:-0.288194 3:0.727778 4:-0.123917 5:-0.0168533 6:-0.598002 7:-0.939344 8:0.224057 9:-0.0689655 10:-1 11:-1 12:-1 13:-1 14:-1 15:-1 
-1.971210581881076 1:-0.993519 2:-0.288194 3:0.688889 4:-0.249923 5:0.0311564 6:-0.510612 7:-1 8:0.13857 9:0.0621105 10:-1 11:-1 12:-1 13:-1 14:-1 15:-1 
-2 1:-0.993556 2:-0.266744 3:0.633333 4:-0.0744923 5:0.0446834 6:-0.510612 7:-0.778147 8:-0.326693 9:0.223515 10:-1 11:-1 12:-1 13:-1 14:-1 15:-1 
-2 1:-0.993614 2:-0.312246 3:0.644444 4:-0.138926 5:0.0677459 6:-0.510612 7:-0.838596 8:-0.265414 9:0.233693 10:-1 11:-1 12:-1 13:-1 14:-1 15:-1 
-0.0389573487076255 1:-0.99382 2:-0.386428 3:0.683333 4:-0.0855212 5:0.0268322 6:-0.538077 7:-1 8:0.409658 9:-0.161197 10:-0.768116 11:-0.5 12:-0.875 13:-0.75 14:-1 15:-1 
-0.01412833339795961 1:-0.993748 2:-0.416972 3:0.719444 4:-0.159442 5:0.0903648 6:-0.553059 7:-1 8:0.641155 9:-0.35189 10:-0.884058 11:-0.5 12:-1 13:-1 14:-1 15:-1 
0.2674030048350281 1:-0.993599 2:-0.330653 3:0.772222 4:-0.0240421 5:0.409247 6:-0.672909 7:-1 8:0.430841 9:-0.178646 10:-0.985507 11:-1 12:-1 13:-0.75 14:-1 15:-1 
-0.1179428427794611 1:-0.993684 2:-0.389105 3:0.769444 4:-0.180657 5:0.402927 6:-0.657928 7:-1 8:0.183709 9:0.0249273 10:-0.971014 11:-0.875 12:-1 13:-1 14:-1 15:-1 
-1.881260920649523 1:-0.993544 2:-0.178906 3:0.830556 4:-0.27738 5:0.505156 6:-0.732834 7:-1 8:0.465641 9:-0.207312 10:-1 11:-1 12:-1 13:-1 14:-1 15:-1 
-2 1:-0.993315 2:-0.319802 3:0.888889 4:-0.197016 5:0.343497 6:-0.8402 7:-1 8:0.192788 9:0.0174491 10:-1 11:-1 12:-1 13:-1 14:-1 15:-1 
0.0396816481047678 1:-0.993909 2:-0.369452 3:0.6 4:-0.127721 5:-0.0119747 6:-0.510612 7:-0.858745 8:0.652503 9:-0.502493 10:-1 11:-1 12:-1 13:-1 14:-1 15:-1 
-0.03467440050779007 1:-0.993379 2:-0.153556 3:0.613889 4:0.118807 5:0.471117 6:-0.510612 7:-0.959701 8:0.68932 9:-0.431865 10:-1 11:-1 12:-1 13:-1 14:-1 15:-1 
-2 1:-0.994067 2:-0.377166 3:0.705556 4:-0.163932 5:0.610267 6:-0.662921 7:-0.942667 8:0.46085 9:-0.260698 10:-0.985507 11:-1 12:-1 13:-1 14:-1 15:-1 
-0.2635632064993124 1:-0.9936 2:-0.397321 3:0.777778 4:-0.157057 5:0.340503 6:-0.6804 7:-1 8:0.516581 9:-0.249273 10:-0.985507 11:-0.875 12:-1 13:-0.75 14:-1 15:-1 
-1.183656750715589 1:-0.993757 2:-0.207775 3:0.7 4:-0.10037 5:-0.0959086 6:-0.510612 7:-0.606772 8:-0.302232 9:0.03199 10:-1 11:-1 12:-1 13:-1 14:-1 15:-1 
-2 1:-0.993803 2:-0.445376 3:0.65 4:-0.177526 5:0.497949 6:-0.510612 7:-0.788326 8:0.273232 9:-0.26049 10:-1 11:-1 12:-1 13:-1 14:-1 15:-1 
0.8720613552429697 1:-0.993781 2:-0.434045 3:0.675 4:-0.194616 5:0.49307 6:-0.510612 7:-1 8:0.419997 9:-0.169713 10:-1 11:-1 12:-1 13:-1 14:-1 15:-1 
-2 1:-0.993802 2:-0.430922 3:0.638889 4:-0.183221 5:0.53986 6:-0.510612 7:-0.747819 8:0.224057 9:-0.26049 10:-1 11:-1 12:-1 13:-1 14:-1 15:-1 
2 1:-0.993417 2:-0.383263 3:0.786111 4:-0.174475 5:0.337842 6:-0.585518 7:-1 8:-0.512798 9:0.598671 10:-1 11:-1 12:-1 13:-1 14:-1 15:-1 
-0.2300374504992325 1:-0.992882 2:-0.248981 3:0.769444 4:-0.0516739 5:0.40714 6:-0.518102 7:-1 8:0.0931787 9:0.0995015 10:-0.855072 11:-1 12:-1 13:-1 14:-1 15:-1 
-0.1659454359875759 1:-0.993494 2:-0.288194 3:0.672222 4:-0.0864127 5:0.0178512 6:-0.510612 7:-0.848774 8:-0.106292 9:0.112588 10:-1 11:-1 12:-1 13:-1 14:-1 15:-1 
-2 1:-0.993429 2:-0.288194 3:0.677778 4:-0.110122 5:0.0123074 6:-0.510612 7:-0.848774 8:-0.0818308 9:0.0924387 10:-1 11:-1 12:-1 13:-1 14:-1 15:-0.999975 
-1.418284606947705 1:-0.993511 2:-0.288194 3:0.683333 4:-0.0855759 5:0.0116421 6:-0.510612 7:-0.838596 8:-0.0941874 9:0.0924387 10:-1 11:-1 12:-1 13:-1 14:-1 15:-1 
-2 1:-0.993678 2:-0.338623 3:0.686111 4:-0.200187 5:0.509147 6:-0.605493 7:-0.950561 8:0.560963 9:-0.33548 10:-1 11:-1 12:-1 13:-1 14:-1 15:-1 
-1.756325048359169 1:-0.993668 2:-0.422368 3:0.719444 4:-0.0853884 5:0.27686 6:-0.513109 7:-0.959493 8:-0.544824 9:0.584545 10:-0.985507 11:-1 12:-1 13:-1 14:-1 15:-1 
-2 1:-0.994333 2:-0.376264 3:0.683333 4:-0.207691 5:0.427874 6:-0.570537 7:-0.349398 8:-0.224057 9:-0.28978 10:-1 11:-1 12:-1 13:-1 14:-1 15:-1 
-2 1:-0.994376 2:-0.456022 3:0.683333 4:-0.230072 5:0.4842 6:-0.570537 7:-0.337973 8:-0.321145 9:-0.22123 10:-1 11:-1 12:-1 13:-1 14:-1 15:-1 
-2 1:-0.994431 2:-0.494146 3:0.677778 4:-0.224781 5:0.456813 6:-0.570537 7:-0.20108 8:-0.445719 9:-0.255505 10:-1 11:-1 12:-1 13:-1 14:-1 15:-1 
-2 1:-0.994053 2:-0.186095 3:0.6 4:-0.22181 5:0.490631 6:-0.570537 7:-0.0982551 8:-0.528937 9:-0.28978 10:-1 11:-1 12:-1 13:-1 14:-1 15:-1 
-2 1:-0.994037 2:-0.203395 3:0.616667 4:-0.250147 5:0.493181 6:-0.570537 7:-0.0641878 8:-0.43185 9:-0.403822 10:-1 11:-1 12:-1 13:-1 14:-1 15:-1 
-2 1:-0.993886 2:-0.24259 3:0.627778 4:-0.221259 5:0.425103 6:-0.570537 7:-0.235355 8:-0.528937 9:-0.15268 10:-1 11:-1 12:-1 13:-1 14:-1 15:-1 
-2 1:-0.993818 2:-0.171993 3:0.680556 4:-0.311026 5:0.489411 6:-0.650437 7:-0.307644 8:-0.428319 9:-0.163274 10:-1 11:-1 12:-1 13:-1 14:-1 15:-1 
-0.07107849705068382 1:-0.993193 2:-0.268321 3:0.655556 4:-0.213891 5:0.580109 6:-0.575531 7:0.00394682 8:-0.859791 9:-0.119443 10:-1 11:-0.75 12:-1 13:-1 14:-1 15:-1 
-0.0296784869068119 1:-0.993242 2:-0.395248 3:0.691667 4:-0.134467 5:-0.337842 6:-0.570537 7:-0.303698 8:-0.528937 9:-0.0843373 10:-0.971014 11:-0.75 12:-0.875 13:-1 14:-0.458333 15:-0.992445 
-2 1:-0.993556 2:-0.356377 3:0.713889 4:-0.1543 5:0.306132 6:-0.570537 7:-0.691732 8:-0.584416 9:0.349398 10:-1 11:-1 12:-1 13:-1 14:-1 15:-1 
-2 1:-0.994195 2:-0.279419 3:0.694444 4:-0.325444 5:0.508815 6:-0.570537 7:-0.337973 8:-0.598285 9:0.00706273 10:-1 11:-1 12:-1 13:-1 14:-1 15:-1 
-2 1:-0.994266 2:-0.337977 3:0.647222 4:-0.288921 5:0.391729 6:-0.570537 7:-0.383673 8:-0.182449 9:-0.28978 10:-1 11:-1 12:-1 13:-1 14:-1 15:-1 
2 1:-0.993629 2:-0.248774 3:0.655556 4:-0.253315 5:0.442843 6:-0.570537 7:-0.292273 8:-0.473459 9:-0.141462 10:-1 11:-1 12:-1 13:-1 14:-1 15:-1 
0.06009176636705545 1:-0.981008 2:-0.397972 3:0.730556 4:-0.11095 5:0.348043 6:-0.570537 7:-0.760283 8:-0.542807 9:0.383673 10:-1 11:-1 12:-1 13:-1 14:-0.833333 15:-0.98921 
-0.2238335999238458 1:-0.994063 2:-0.332781 3:0.636111 4:-0.242944 5:0.695975 6:-0.612984 7:0.259036 8:-0.678981 9:-0.523265 10:-0.956522 11:-0.75 12:-1 13:-1 14:-1 15:-1 
-1.045929448149595 1:-0.993898 2:-0.288194 3:0.65 4:-0.166085 5:-0.386961 6:-0.570537 7:0.278355 8:-0.764469 9:-0.472372 10:-0.971014 11:-1 12:-1 13:-1 14:-1 15:-1 
-0.2779676270854462 1:-0.993985 2:-0.362284 3:0.7 4:-0.277785 5:-0.740991 6:-0.715356 7:0.74221 8:-1 9:-0.74221 10:-0.956522 11:-1 12:-0.875 13:-1 14:-1 15:-1 
-2 1:-0.994184 2:-0.372173 3:0.636111 4:-0.217084 5:0.407917 6:-0.570537 7:-0.292273 8:-0.653512 9:0.00706273 10:-1 11:-1 12:-1 13:-1 14:-1 15:-1 
-2 1:-0.993643 2:-0.352657 3:0.652778 4:-0.140385 5:-0.0880364 6:-0.570537 7:-0.395098 8:-0.70899 9:0.15538 10:-1 11:-1 12:-1 13:-1 14:-1 15:-1 
-0.1807210832800954 1:-0.993554 2:-0.268696 3:0.675 4:-0.221357 5:0.467347 6:-0.60799 7:-0.315953 8:-0.350649 9:-0.218945 10:-0.985507 11:-1 12:-0.75 13:-0.75 14:-1 15:-1 
2 1:-0.993502 2:-0.242573 3:0.711111 4:-0.194926 5:0.398825 6:-0.610487 7:-0.512048 8:-0.422771 9:0.0363523 10:-0.985507 11:-1 12:-1 13:-1 14:-1 15:-1 
0.2785763941940894 1:-0.993736 2:-0.316318 3:0.727778 4:-0.201411 5:0.38053 6:-0.670412 7:-0.444121 8:-0.55592 9:0.0783133 10:-1 11:-0.875 12:-1 13:-1 14:-1 15:-1 
0.009635395364364608 1:-0.993853 2:-0.300191 3:0.708333 4:-0.207818 5:0.370773 6:-0.630462 7:-0.552971 8:-0.249779 9:-0.0650187 10:-1 11:-1 12:-1 13:-0.75 14:-1 15:-1 
0.04117039057908661 1:-0.993623 2:-0.620009 3:0.591667 4:-0.18696 5:-0.152899 6:-0.570537 7:-0.417948 8:-0.70899 9:0.17823 10:-1 11:-1 12:-1 13:-1 14:-1 15:-1 
-0.07735955554009673 1:-0.994094 2:-0.327251 3:0.708333 4:-0.192033 5:0.57778 6:-0.652934 7:-0.205235 8:-0.306014 9:-0.366224 10:-0.985507 11:-1 12:-1 13:-0.5 14:-1 15:-1 
-0.1751291501008126 1:-0.994138 2:-0.298706 3:0.65 4:-0.22711 5:0.649074 6:-0.632959 7:0.28334 8:-0.903669 9:-0.3629 10:-0.985507 11:-0.75 12:-1 13:-1 14:-1 15:-1 
-2 1:-0.994141 2:-0.454296 3:0.641667 4:-0.317172 5:0.654618 6:-0.570537 7:-0.00706273 8:-0.487328 9:-0.415247 10:-1 11:-1 12:-1 13:-1 14:-1 15:-1 
2 1:-0.993845 2:-0.308307 3:0.672222 4:-0.178219 5:0.381528 6:-0.570537 7:-0.520565 8:-0.293406 9:-0.0614873 10:-1 11:-1 12:-1 13:-1 14:-1 15:-1 
-0.6981386466327635 1:-0.993901 2:-0.408418 3:0.641667 4:-0.0913867 5:0.406697 6:-0.570537 7:-0.00706273 8:-0.764469 9:-0.186955 10:-0.913043 11:-1 12:-1 13:-1 14:-1 15:-1 
-0.4989313618088954 1:-0.993939 2:-0.268581 3:0.611111 4:-0.143348 5:0.477326 6:-0.570537 7:0.209805 8:-0.861556 9:-0.324055 10:-0.985507 11:-1 12:-1 13:-1 14:-1 15:-1 
-2 1:-0.993518 2:-0.288194 3:0.808333 4:-0.206709 5:-0.116864 6:-0.757803 7:-0.514749 8:0.131257 9:-0.417117 10:-1 11:-1 12:-1 13:-1 14:-1 15:-1 
-2 1:-0.993725 2:-0.283993 3:0.702778 4:-0.181327 5:0.435192 6:-0.635456 7:-0.280848 8:-0.256336 9:-0.331533 10:-1 11:-1 12:-0.875 13:-1 14:-1 15:-1 
-2 1:-0.994469 2:-0.41784 3:0.6 4:-0.21275 5:0.468788 6:-0.570537 7:-0.337973 8:-0.501198 9:-0.0729123 10:-1 11:-1 12:-1 13:-1 14:-1 15:-1 
-2 1:-0.994469 2:-0.41784 3:0.6 4:-0.21275 5:0.468788 6:-0.570537 7:-0.337973 8:-0.501198 9:-0.0729123 10:-1 11:-1 12:-1 13:-1 14:-1 15:-1 
-1.035580829294767 1:-0.994446 2:-0.433738 3:0.602778 4:-0.226501 5:0.428762 6:-0.570537 7:-0.212505 8:-0.639642 9:-0.0843373 10:-1 11:-1 12:-1 13:-1 14:-1 15:-1 
-2 1:-0.994423 2:-0.384867 3:0.6 4:-0.25767 5:0.468234 6:-0.570537 7:-0.121105 8:-0.598285 9:-0.209805 10:-1 11:-1 12:-1 13:-1 14:-1 15:-1 
-2 1:-0.994454 2:-0.390137 3:0.613889 4:-0.258345 5:0.47023 6:-0.570537 7:-0.258205 8:-0.625772 9:-0.0500623 10:-1 11:-1 12:-1 13:-1 14:-1 15:-1 
1.182192487851148 1:-0.993827 2:-0.448272 3:0.686111 4:-0.140484 5:0.233396 6:-0.573034 7:-1 8:-0.777077 9:0.816369 10:-1 11:-1 12:-1 13:-1 14:-1 15:-1 
0.3261540846942541 1:-0.993858 2:-0.538121 3:0.727778 4:-0.148708 5:0.262668 6:-0.573034 7:-1 8:-0.679486 9:0.735978 10:-0.985507 11:-1 12:-1 13:-1 14:-1 15:-1 
0.1219173963634361 1:-0.993976 2:-0.332585 3:0.811111 4:-0.187003 5:0.365672 6:-0.802747 7:-0.276485 8:-0.149918 9:-0.423764 10:-0.985507 11:-1 12:-1 13:-1 14:-0.833333 15:-1 
-2 1:-0.993803 2:-0.350887 3:0.766667 4:-0.232903 5:0.362457 6:-0.705368 7:-0.448276 8:-0.0150044 9:-0.363108 10:-1 11:-1 12:-1 13:-1 14:-1 15:-1 
-2 1:-0.993776 2:-0.335808 3:0.780556 4:-0.20595 5:0.427764 6:-0.705368 7:-0.707935 8:0.260875 9:-0.330702 10:-1 11:-1 12:-1 13:-1 14:-1 15:-1 
-2 1:-0.994026 2:-0.417781 3:0.758333 4:-0.201454 5:0.440293 6:-0.705368 7:-0.302243 8:0.00466524 9:-0.52555 10:-1 11:-1 12:-1 13:-1 14:-1 15:-1 
-1.269167120118011 1:-0.993843 2:-0.342404 3:0.783333 4:-0.137297 5:0.387515 6:-0.705368 7:-0.594308 8:0.182196 9:-0.379518 10:-1 11:-1 12:-1 13:-1 14:-1 15:-1 
-2 1:-0.993618 2:-0.330007 3:0.791667 4:-0.248532 5:0.354585 6:-0.705368 7:-0.691732 8:0.339554 9:-0.411924 10:-1 11:-1 12:-1 13:-1 14:-1 15:-1 
-2 1:-0.994439 2:-0.382054 3:0.747222 4:-0.240773 5:0.536534 6:-0.705368 7:0.0386373 8:-0.251292 9:-0.65538 10:-1 11:-1 12:-1 13:-1 14:-1 15:-1 
-0.115833590303264 1:-0.994418 2:-0.376464 3:0.783333 4:-0.244875 5:0.546735 6:-0.705368 7:0.136061 8:-0.211953 9:-0.78521 10:-1 11:-1 12:-1 13:-1 14:-1 15:-1 
-2 1:-0.994374 2:-0.359606 3:0.761111 4:-0.253769 5:0.530436 6:-0.705368 7:0.136061 8:-0.231623 9:-0.769007 10:-1 11:-1 12:-1 13:-1 14:-1 15:-1 
-0.3378884091440051 1:-0.993506 2:-0.3263 3:0.766667 4:-0.216947 5:0.474332 6:-0.722846 7:-0.347736 8:-0.332997 9:-0.201703 10:-0.985507 11:-1 12:-1 13:-1 14:-1 15:-1 
0.06107016626302997 1:-0.99302 2:-0.167874 3:0.797222 4:-0.296883 5:0.611043 6:-0.705368 7:-0.0261737 8:-0.389232 9:-0.476735 10:-1 11:-1 12:-1 13:-1 14:-1 15:-0.999951 
0.03052518299734307 1:-0.99336 2:-0.422143 3:0.791667 4:-0.14135 5:-0.281406 6:-0.705368 7:-0.204819 8:-0.507502 9:-0.200872 10:-1 11:-0.875 12:-1 13:-1 14:-0.625 15:-0.99521 
-2 1:-0.993964 2:-0.341392 3:0.75 4:-0.287189 5:0.520568 6:-0.705368 7:-0.107395 8:-0.389232 9:-0.395721 10:-1 11:-1 12:-1 13:-1 14:-1 15:-1 
2 1:-0.994007 2:-0.231997 3:0.761111 4:-0.254689 5:0.528218 6:-0.705368 7:-0.0911924 8:-0.448241 9:-0.363108 10:-1 11:-1 12:-1 13:-1 14:-1 15:-1 
-2 1:-0.993887 2:-0.336366 3:0.758333 4:-0.298755 5:0.633995 6:-0.735331 7:-0.158288 8:-0.412937 9:-0.325093 10:-1 11:-1 12:-1 13:-1 14:-1 15:-1 
1.125547292842086 1:-0.993993 2:-0.362417 3:0.75 4:-0.261408 5:0.5209 6:-0.710362 7:-0.208558 8:-0.279536 9:-0.384919 10:-1 11:-0.875 12:-1 13:-1 14:-1 15:-1 
2 1:-0.994099 2:-0.173128 3:0.769444 4:-0.213585 5:0.519015 6:-0.705368 7:0.119859 8:-0.290884 9:-0.703988 10:-1 11:-1 12:-1 13:-1 14:-1 15:-1 
-2 1:-0.994121 2:-0.381585 3:0.747222 4:-0.26711 5:0.511587 6:-0.707865 7:-0.133153 8:-0.0271088 9:-0.668259 10:-1 11:-1 12:-1 13:-1 14:-1 15:-1 
-2 1:-0.994287 2:-0.474631 3:0.722222 4:-0.244661 5:0.462246 6:-0.707865 7:-0.149564 8:-0.146135 9:-0.553801 10:-1 11:-1 12:-1 13:-1 14:-1 15:-1 
2 1:-0.993479 2:-0.213387 3:0.761111 4:-0.182223 5:0.377315 6:-0.705368 7:-0.432073 8:-0.428571 9:-0.0386373 10:-1 11:-1 12:-1 13:-1 14:-1 15:-1 
0.9033159756908654 1:-0.985486 2:-0.322257 3:0.794444 4:-0.0709351 5:0.339505 6:-0.705368 7:-0.334649 8:-0.527172 9:-0.05484 10:-1 11:-1 12:-1 13:-1 14:-0.916667 15:-0.994272 
-0.7292891118427002 1:-0.99406 2:-0.280568 3:0.741667 4:-0.319775 5:0.672469 6:-0.710362 7:0.384919 8:-0.61972 9:-0.698172 10:-1 11:-1 12:-1 13:-1 14:-1 15:-1 
-0.2024200810572971 1:-0.994024 2:-0.287484 3:0.733333 4:-0.296421 5:0.739328 6:-0.710362 7:0.500208 8:-0.599798 9:-0.830079 10:-1 11:-1 12:-1 13:-1 14:-1 15:-1 
-0.02251665889928709 1:-0.994062 2:-0.325619 3:0.741667 4:-0.242452 5:0.620024 6:-0.730337 7:0.285002 8:-0.615433 9:-0.601994 10:-0.971014 11:-0.875 12:-1 13:-1 14:-1 15:-1 
1.157891718789486 1:-0.993698 2:-0.288194 3:0.75 4:-0.228288 5:-0.431866 6:-0.705368 7:0.136061 8:-0.487833 9:-0.557956 10:-0.985507 11:-1 12:-1 13:-1 14:-1 15:-1 
1.992408347430452 1:-0.993688 2:-0.288194 3:0.75 4:-0.179405 5:-0.380086 6:-0.705368 7:0.200872 8:-0.724121 9:-0.428126 10:-1 11:-1 12:-1 13:-1 14:-1 15:-1 
2 1:-0.993713 2:-0.288194 3:0.763889 4:-0.193641 5:-0.341834 6:-0.705368 7:0.152264 8:-0.507502 9:-0.557956 10:-0.971014 11:-1 12:-1 13:-1 14:-1 15:-1 
-1.864405345640526 1:-0.993386 2:-0.288194 3:0.880556 4:-0.205036 5:-0.0547733 6:-0.825218 7:-0.844204 8:-0.369562 9:0.324886 10:-1 11:-1 12:-1 13:-1 14:-1 15:-1 
0.106566734976194 1:-0.99352 2:-0.288194 3:0.791667 4:-0.193457 5:-0.413017 6:-0.705368 7:-0.318446 8:-0.684781 9:0.0587869 10:-1 11:-1 12:-1 13:-1 14:-1 15:-1 
-2 1:-0.993715 2:-0.341275 3:0.755556 4:-0.183837 5:0.325978 6:-0.705368 7:-0.464479 8:-0.74379 9:0.253428 10:-1 11:-1 12:-1 13:-1 14:-1 15:-1 
0.1040952057992913 1:-0.99357 2:-0.167889 3:0.761111 4:-0.228375 5:0.617918 6:-0.705368 7:0.0872455 8:-0.487833 9:-0.509348 10:-1 11:-1 12:-1 13:-1 14:-1 15:-1 
-2 1:-0.993655 2:-0.364322 3:0.730556 4:-0.207205 5:-0.158887 6:-0.705368 7:-0.318446 8:-0.330223 9:-0.233486 10:-1 11:-1 12:-1 13:-1 14:-1 15:-1 
-2 1:-0.994057 2:-0.355014 3:0.722222 4:-0.181166 5:0.357357 6:-0.705368 7:-0.139801 8:-0.408902 9:-0.346905 10:-1 11:-1 12:-1 13:-1 14:-1 15:-1 
2 1:-0.993634 2:-0.284067 3:0.875 4:-0.256527 5:0.561481 6:-0.852684 7:-0.367885 8:-0.159501 9:-0.324678 10:-1 11:-1 12:-1 13:-1 14:-1 15:-1 
-2 1:-0.993293 2:-0.242114 3:0.977778 4:-0.269173 5:0.317663 6:-0.950062 7:-1 8:0.344849 9:-0.107811 10:-1 11:-1 12:-1 13:-1 14:-1 15:-1 
-0.003055068143600898 1:-0.993727 2:-0.392736 3:0.730556 4:-0.253856 5:-0.431201 6:-0.705368 7:-0.0425841 8:-0.172614 9:-0.639177 10:-1 11:-1 12:-1 13:-1 14:-1 15:-1 
-1.142759359715144 1:-0.993727 2:-0.392736 3:0.730556 4:-0.253856 5:-0.431201 6:-0.705368 7:-0.0425841 8:-0.172614 9:-0.639177 10:-1 11:-1 12:-1 13:-1 14:-1 15:-1 
0.1207896093466581 1:-0.993553 2:-0.618065 3:0.741667 4:-0.163116 5:-0.0657501 6:-0.705368 7:-0.87017 8:-0.211953 9:0.221022 10:-1 11:-1 12:-1 13:-1 14:-1 15:-1 
-0.2068935744832676 1:-0.992969 2:-0.288194 3:0.772222 4:-0.0903151 5:0.069409 6:-0.705368 7:-1 8:-0.940991 9:0.951392 10:-1 11:-1 12:-1 13:-1 14:-1 15:-0.996272 
-1.945801767360876 1:-0.993511 2:-0.305643 3:0.761111 4:-0.179832 5:0.169642 6:-0.705368 7:-0.67553 8:-0.822721 9:0.52929 10:-1 11:-1 12:-1 13:-1 14:-1 15:-1 
1.670054818260076 1:-0.993823 2:-0.229947 3:0.788889 4:-0.236401 5:0.695421 6:-0.742821 7:-0.154342 8:-0.129744 9:-0.562526 10:-1 11:-1 12:-0.875 13:-1 14:-1 15:-1 
-2 1:-0.993623 2:-0.337658 3:0.775 4:-0.135469 5:0.343054 6:-0.705368 7:-0.918779 8:-0.0346741 9:0.123598 10:-1 11:-1 12:-1 13:-1 14:-1 15:-1 
-2 1:-0.993918 2:-0.349717 3:0.741667 4:-0.159983 5:0.371327 6:-0.725343 7:-0.480681 8:-0.369562 9:-0.0386373 10:-1 11:-1 12:-1 13:-1 14:-1 15:-1 
-0.05243828774512711 1:-0.992775 2:-0.238737 3:0.819444 4:-0.15324 5:0.327753 6:-0.712859 7:-0.185708 8:-0.39478 9:-0.312838 10:-0.898551 11:-1 12:-1 13:-1 14:-1 15:-0.999975 
2 1:-0.994066 2:-0.3576 3:0.747222 4:-0.238711 5:0.734228 6:-0.705368 7:0.0872455 8:-0.310554 9:-0.65538 10:-1 11:-1 12:-1 13:-1 14:-1 15:-1 
2 1:-0.994003 2:-0.370829 3:0.766667 4:-0.28852 5:0.745315 6:-0.705368 7:0.0386373 8:-0.389232 9:-0.541753 10:-1 11:-1 12:-1 13:-1 14:-1 15:-1 
2 1:-0.994084 2:-0.485428 3:0.755556 4:-0.280713 5:0.719814 6:-0.705368 7:0.00623182 8:-0.507502 9:-0.411924 10:-1 11:-1 12:-1 13:-1 14:-1 15:-1 
2 1:-0.993656 2:-0.288194 3:0.755556 4:-0.183478 5:-0.410578 6:-0.705368 7:-0.0261737 8:-0.527172 9:-0.363108 10:-1 11:-1 12:-1 13:-1 14:-1 15:-1 
2 1:-0.993354 2:-0.301458 3:0.780556 4:-0.138875 5:0.402373 6:-0.705368 7:-0.221022 8:-0.566511 9:-0.136061 10:-1 11:-1 12:-1 13:-1 14:-1 15:-1 
2 1:-0.993491 2:-0.266597 3:0.797222 4:-0.141561 5:0.43242 6:-0.705368 7:-0.188617 8:-0.487833 9:-0.233486 10:-1 11:-1 12:-1 13:-1 14:-1 15:-1 
-2 1:-0.993507 2:-0.300676 3:0.816667 4:-0.246958 5:0.436523 6:-0.790262 7:-0.491691 8:-0.141596 9:-0.215413 10:-1 11:-1 12:-1 13:-1 14:-1 15:-1 
-0.5516670439132463 1:-0.993431 2:-0.0930558 3:0.719444 4:-0.164316 5:-0.0837122 6:-0.705368 7:-0.432073 8:-0.88173 9:0.334649 10:-1 11:-1 12:-1 13:-1 14:-1 15:-1 
-0.01435680557846833 1:-0.993692 2:-0.214472 3:0.763889 4:-0.219862 5:0.409136 6:-0.705368 7:-0.513087 8:-0.921321 9:0.448276 10:-1 11:-1 12:-1 13:-1 14:-1 15:-1 
-0.1456513605222738 1:-0.993358 2:-0.288194 3:0.922222 4:-0.22292 5:-0.391174 6:-0.927591 7:-0.0413378 8:-1 9:0.0413378 10:-1 11:-1 12:-1 13:-1 14:-1 15:-1 
-0.2917348357121992 1:-0.993383 2:-0.288194 3:0.905556 4:-0.20859 5:-0.494844 6:-0.900125 7:-0.16909 8:-0.69739 9:-0.0801828 10:-1 11:-1 12:-1 13:-1 14:-1 15:-1 
-2 1:-0.994392 2:-0.414531 3:0.727778 4:-0.235888 5:0.458587 6:-0.705368 7:0.00623182 8:-0.468163 9:-0.444329 10:-1 11:-1 12:-1 13:-1 14:-1 15:-1 
-2 1:-0.99421 2:-0.387126 3:0.733333 4:-0.220687 5:0.496951 6:-0.705368 7:-0.139801 8:-0.468163 9:-0.298297 10:-1 11:-1 12:-1 13:-1 14:-1 15:-1 
-2 1:-0.994159 2:-0.354867 3:0.733333 4:-0.230995 5:0.516354 6:-0.705368 7:-0.0261737 8:-0.310554 9:-0.541753 10:-1 11:-1 12:-1 13:-1 14:-1 15:-1 
-0.4635980984793467 1:-0.993332 2:-0.260396 3:0.886111 4:-0.207665 5:0.368666 6:-0.850187 7:-0.465933 8:-1 9:0.465933 10:-1 11:-1 12:-1 13:-1 14:-1 15:-1 
-0.2839733608699832 1:-0.993469 2:-0.118944 3:0.788889 4:-0.195716 5:0.26045 6:-0.707865 7:-0.869132 8:-0.861052 9:0.754674 10:-1 11:-1 12:-1 13:-1 14:-1 15:-1 
1.214559556323531 1:-0.993909 2:-0.447236 3:0.786111 4:-0.136701 5:0.290941 6:-0.707865 7:-1 8:-0.622746 9:0.68924 10:-1 11:-1 12:-1 13:-1 14:-1 15:-1 
-0.5815040267443072 1:-0.993858 2:-0.341268 3:0.794444 4:-0.157931 5:0.2844 6:-0.707865 7:-0.803698 8:-0.821208 9:0.656419 10:-1 11:-1 12:-1 13:-1 14:-1 15:-1 
-1.009700398952508 1:-0.994815 2:-0.0946755 3:0.227778 4:-0.0601634 5:0.515024 6:-0.148564 7:-0.153718 8:-0.389232 9:-0.349398 10:-1 11:-1 12:-1 13:-1 14:-1 15:-1 
2 1:-0.994801 2:-0.110705 3:0.152778 4:-0.0501504 5:0.413571 6:0.0486891 7:-0.54113 8:-0.50145 9:0.130453 10:-1 11:-1 12:-1 13:-1 14:-1 15:-1 
0.4286713967426444 1:-0.995304 2:-0.50025 3:0.0916667 4:-0.313539 5:0.688103 6:0.0436954 7:-0.247819 8:-0.422519 9:-0.227877 10:-1 11:-1 12:-1 13:-1 14:-1 15:-1 
-0.229591393098388 1:-0.992777 2:0.0424585 3:0.394444 4:-0.140974 5:0.560816 6:0.051186 7:-0.209597 8:-0.496911 9:-0.204819 10:-1 11:-1 12:-1 13:-1 14:-1 15:-0.999877 
1.750730470954673 1:-0.995534 2:-0.49105 3:0.125 4:-0.362012 5:0.509813 6:0.051186 7:-0.325301 8:-0.578616 9:-0.0218114 10:-1 11:-1 12:-1 13:-1 14:-1 15:-1 
-0.04041156045863017 1:-0.993993 2:-0.0631846 3:0.0555556 4:0.186857 5:0.543076 6:0.051186 7:-0.156627 8:-0.397302 9:-0.339842 10:-1 11:-1 12:-1 13:-1 14:-1 15:-1 
2 1:-0.995585 2:-0.47823 3:0.211111 4:-0.10369 5:0.402816 6:0.051186 7:-0.195056 8:-0.502711 9:-0.214582 10:-1 11:-1 12:-1 13:-1 14:-1 15:-1 
0.215455809893641 1:-0.996027 2:-0.562009 3:0.113889 4:-0.467646 5:0.724471 6:0.0287141 7:-0.173037 8:-0.354684 9:-0.358538 10:-0.956522 11:-0.75 12:-0.875 13:-1 14:-1 15:-1 
0.2919095053321429 1:-0.994711 2:-0.568959 3:0.0638889 4:-0.449536 5:-0.18073 6:0.0337079 7:-0.176984 8:-0.393267 9:-0.322808 10:-0.927536 11:-0.875 12:-0.875 13:-1 14:-1 15:-1 
0.6890885274416567 1:-0.995885 2:-0.505796 3:0.0777778 4:-0.406411 5:0.667258 6:0.051186 7:-0.190278 8:-0.344597 9:-0.349605 10:0.318841 11:-0.875 12:-1 13:-1 14:-1 15:-0.999926 
0.198209913629789 1:-0.993898 2:-0.507531 3:0.113889 4:-0.288169 5:0.585874 6:0.051186 7:-0.17096 8:-0.467659 9:-0.267553 10:-0.956522 11:-1 12:-1 13:-1 14:-0.875 15:-0.997383 
2 1:-0.995955 2:-0.509354 3:0.105556 4:-0.136097 5:0.45005 6:0.0411985 7:-0.343166 8:-0.48632 9:-0.0799751 10:-1 11:-1 12:-1 13:-1 14:-1 15:-1 
1.721507338211537 1:-0.995993 2:-0.479828 3:0.0916667 4:-0.168119 5:0.470008 6:0.0411985 7:-0.270253 8:-0.450763 9:-0.182177 10:-1 11:-1 12:-1 13:-1 14:-1 15:-1 
2 1:-0.995986 2:-0.462818 3:0.119444 4:-0.289861 5:0.485087 6:0.0411985 7:-0.236186 8:-0.409406 9:-0.250312 10:-1 11:-1 12:-1 13:-1 14:-1 15:-1 
0.4578095668544463 1:-0.994336 2:-0.288194 3:0.0611111 4:-0.299067 5:-0.175407 6:0.0337079 7:-0.186747 8:-0.387467 9:-0.317823 10:-0.956522 11:-0.875 12:-1 13:-1 14:-1 15:-1 
0.5149438737171678 1:-0.995588 2:-0.476093 3:0.130556 4:-0.121746 5:0.552833 6:0.0337079 7:-0.191525 8:-0.440928 9:-0.268799 10:-1 11:-0.875 12:-0.625 13:-1 14:-1 15:-1 
-0.03744172304013832 1:-0.994794 2:-0.460804 3:0.147222 4:0.000882216 5:-0.124182 6:0.051186 7:-0.277108 8:-0.0228218 9:-0.527835 10:-1 11:-1 12:-1 13:-1 14:-1 15:-1 
-2 1:-0.994234 2:-0.316624 3:0.338889 4:-0.189769 5:0.682892 6:-0.280899 7:-0.184462 8:-0.128483 9:-0.533652 10:-0.971014 11:-1 12:-0.875 13:-1 14:-1 15:-1 
0.367574188759246 1:-0.994241 2:-0.288194 3:0.172222 4:-0.448204 5:-0.167757 6:-0.071161 7:-0.173452 8:-0.366284 9:-0.348567 10:-1 11:-0.875 12:-0.5 13:-0.75 14:-0.958333 15:-1 
0.04967114935884826 1:-0.996068 2:-0.426181 3:0.0333333 4:-0.357943 5:0.564253 6:0.051186 7:-0.224138 8:-0.420754 9:-0.253012 10:-1 11:-1 12:-1 13:-1 14:-1 15:-1 
2 1:-0.99631 2:-0.457237 3:0.161111 4:-0.347485 5:0.646635 6:0.051186 7:-0.185501 8:-0.338797 9:-0.359161 10:-1 11:-1 12:-1 13:-1 14:-1 15:-1 
1.223114668824039 1:-0.996182 2:-0.486201 3:0.152778 4:-0.417899 5:0.637876 6:0.051186 7:-0.214375 8:-0.379902 9:-0.296427 10:-1 11:-1 12:-1 13:-1 14:-1 15:-1 
1.946263674963278 1:-0.996026 2:-0.454303 3:0.113889 4:-0.260774 5:0.502384 6:0.051186 7:-0.277108 8:-0.496911 9:-0.137516 10:-1 11:-1 12:-1 13:-1 14:-1 15:-1 
0.7426570264100504 1:-0.994058 2:-0.377027 3:0.275 4:0.310604 5:0.429427 6:0.051186 7:-0.43602 8:-0.596268 9:0.103448 10:-0.826087 11:-1 12:-1 13:-1 14:-1 15:-1 
1.673807261248572 1:-0.994241 2:-0.288194 3:0.25 4:0.116258 5:-0.101452 6:0.051186 7:-0.195056 8:-0.561215 9:-0.16639 10:-0.869565 11:-1 12:-1 13:-1 14:-1 15:-0.999975 
0.2343524527001578 1:-0.994427 2:-0.288194 3:0.183333 4:0.173571 5:-0.123961 6:0.051186 7:-0.060241 8:-0.403102 9:-0.43145 10:-0.898551 11:-1 12:-1 13:-1 14:-1 15:-1 
1.481771384949321 1:-0.996077 2:-0.567727 3:0.105556 4:-0.403572 5:0.61437 6:0.051186 7:-0.465102 8:-0.426554 9:-0.00727046 10:-1 11:-1 12:-1 13:-1 14:-1 15:-1 
2 1:-0.993917 2:-0.288194 3:0.25 4:0.0493726 5:-0.0260561 6:0.0486891 7:-0.415455 8:-0.583659 9:0.0724969 10:-1 11:-1 12:-1 13:-1 14:-1 15:-1 
2 1:-0.995071 2:-0.154646 3:0.0916667 4:-0.229904 5:0.563144 6:0.0362047 7:-0.208143 8:-0.424537 9:-0.265891 10:-0.942029 11:-1 12:-1 13:-1 14:-1 15:-1 
0.1725795499655178 1:-0.994991 2:-0.0834415 3:0.0722222 4:-0.153678 5:0.54995 6:0.0362047 7:-0.208143 8:-0.430337 9:-0.261113 10:-0.942029 11:-1 12:-1 13:-1 14:-1 15:-1 
2 1:-0.9948 2:-0.337265 3:0.0722222 4:-0.228562 5:0.555937 6:0.0461923 7:-0.196302 8:-0.424032 9:-0.278355 10:-1 11:-1 12:-1 13:-1 14:-1 15:-1 
0.7030181625540501 1:-0.995612 2:-0.374543 3:0.0916667 4:-0.177665 5:0.545293 6:0.0486891 7:-0.241587 8:-0.49565 9:-0.173868 10:-1 11:-1 12:-1 13:-1 14:-1 15:-1 
2 1:-0.995861 2:-0.456166 3:0.111111 4:-0.0658149 5:0.363233 6:0.0436954 7:-0.432073 8:-0.381415 9:-0.0774823 10:-1 11:-1 12:-1 13:-1 14:-1 15:-1 
0.3095470747242032 1:-0.99623 2:-0.491744 3:0.0583333 4:-0.402904 5:0.623351 6:0.051186 7:-0.238471 8:-0.327197 9:-0.315746 10:-1 11:-1 12:-1 13:-1 14:-1 15:-1 
-2 1:-0.993815 2:-0.225208 3:0.658333 4:-0.272927 5:0.428651 6:-0.615481 7:-0.531367 8:-0.523389 9:0.138762 10:-1 11:-1 12:-1 13:-1 14:-1 15:-1 
-2 1:-0.994425 2:-0.419045 3:0.352778 4:-0.180911 5:0.511365 6:-0.253433 7:-0.428542 8:-0.216492 9:-0.216867 10:-1 11:-1 12:-1 13:-1 14:-1 15:-1 
0.1304122585637605 1:-0.993615 2:-0.508892 3:0.302778 4:-0.205049 5:0.592416 6:-0.166042 7:-0.529082 8:-0.310806 9:-0.0386373 10:-0.956522 11:-0.875 12:-1 13:-1 14:-1 15:-0.999951 
0.2945478046726114 1:-0.994586 2:-0.565351 3:0.447222 4:-0.285181 5:0.507262 6:-0.146067 7:-0.681346 8:-0.204892 9:0.0261737 10:-1 11:-1 12:-1 13:-1 14:-1 15:-1 
0.344209339846374 1:-0.994279 2:-0.482225 3:0.416667 4:0.100745 5:-0.244706 6:-0.146067 7:-0.356668 8:-0.534233 9:-0.0267968 10:-1 11:-1 12:-1 13:-1 14:-1 15:-1 
0.6253830771737543 1:-0.993626 2:-0.621845 3:0.497222 4:0.0811973 5:0.207007 6:-0.146067 7:-0.740341 8:-0.914008 9:0.669506 10:-1 11:-1 12:-1 13:-1 14:-1 15:-1 
0.3015085426785043 1:-0.994583 2:-0.607801 3:0.336111 4:-0.197579 5:0.636878 6:-0.183521 7:-0.408184 8:-0.154457 9:-0.288326 10:-0.884058 11:-0.5 12:-1 13:-0.5 14:-1 15:-1 
-2 1:-0.994501 2:-0.537445 3:0.488889 4:-0.264862 5:0.500832 6:-0.373283 7:-0.474657 8:-0.304249 9:-0.0982551 10:-1 11:-1 12:-1 13:-1 14:-1 15:-1 
0.5255693408535702 1:-0.994576 2:-0.737008 3:0.272222 4:-0.330587 5:0.437964 6:-0.146067 7:-0.504362 8:-0.340815 9:-0.0386373 10:-1 11:-1 12:-1 13:-1 14:-1 15:-1 
0.248568930391118 1:-0.935571 2:-0.248179 3:0.447222 4:-0.0238913 5:0.443508 6:-0.146067 7:-0.463025 8:-0.31938 9:-0.0976319 10:-0.884058 11:-1 12:-0.75 13:-0.75 14:-0.75 15:-0.943657 
-2 1:-0.994593 2:-0.38954 3:0.475 4:-0.264065 5:0.44495 6:-0.373283 7:-0.530328 8:-0.246249 9:-0.0903614 10:-1 11:-1 12:-1 13:-1 14:-1 15:-1 
1.487671439283954 1:-0.99483 2:-0.55813 3:0.244444 4:-0.362769 5:0.567912 6:-0.146067 7:-0.457 8:-0.297945 9:-0.121313 10:-1 11:-1 12:-1 13:-1 14:-1 15:-1 
0.357651617701739 1:-0.993995 2:-0.613739 3:0.361111 4:-0.0813291 5:-0.170196 6:-0.205993 7:-0.569381 8:-0.261884 9:-0.0386373 10:-0.695652 11:-0.375 12:-0.75 13:-1 14:-1 15:-1 
0.3382892284880781 1:-0.994164 2:-0.593955 3:0.391667 4:-0.0562493 5:-0.222087 6:-0.268414 7:-0.4516 8:-0.25104 9:-0.165559 10:-0.826087 11:-0.875 12:-1 13:-0.75 14:-1 15:-1 
-0.1125243794825334 1:-0.994181 2:-0.639082 3:0.411111 4:-0.12681 5:-0.299479 6:-0.318352 7:-0.383465 8:-0.242466 9:-0.240548 10:-0.73913 11:-0.75 12:-0.75 13:-1 14:-1 15:-1 
0.02504498955281798 1:-0.993867 2:-0.288194 3:0.347222 4:-0.262255 5:-0.137488 6:-0.198502 7:-0.435189 8:-0.238179 9:-0.192356 10:-0.884058 11:-0.875 12:-0.875 13:-0.75 14:-1 15:-1 
0.1208785953851414 1:-0.994278 2:-0.547146 3:0.311111 4:0.0446445 5:0.548398 6:-0.17603 7:-0.462401 8:-0.110074 9:-0.270877 10:-0.913043 11:-0.875 12:-0.875 13:-1 14:-0.958333 15:-1 
1.429067326049 1:-0.993534 2:-0.310147 3:0.336111 4:-0.12859 5:0.485863 6:-0.146067 7:-0.463025 8:-0.16177 9:-0.227462 10:-1 11:-1 12:-0.875 13:-1 14:-1 15:-0.998864 
0.2493925305662502 1:-0.994697 2:-0.605829 3:0.347222 4:-0.256324 5:0.519348 6:-0.146067 7:-0.439344 8:-0.16177 9:-0.251143 10:-1 11:-1 12:-1 13:-0.75 14:-1 15:-0.999605 
0.4156994678327512 1:-0.994472 2:-0.509045 3:0.352778 4:-0.166983 5:0.459918 6:-0.146067 7:-0.515995 8:-0.0901526 9:-0.233486 10:-1 11:-1 12:-1 13:-0.75 14:-1 15:-0.999605 
0.02685423831338961 1:-0.994531 2:-0.671306 3:0.352778 4:-0.119878 5:0.567025 6:-0.196005 7:-0.411924 8:-0.194805 9:-0.25135 10:-0.884058 11:-1 12:-0.75 13:-0.75 14:-1 15:-1 
-0.3311449801686921 1:-0.993666 2:-0.409217 3:0.513889 4:-0.116023 5:0.639206 6:-0.440699 7:-0.440798 8:0.077796 9:-0.447029 10:-1 11:-1 12:-1 13:-1 14:-1 15:-1 
-2 1:-0.994225 2:-0.436123 3:0.513889 4:-0.133273 5:0.684111 6:-0.463171 7:-0.224553 8:-0.338797 9:-0.320316 10:-0.985507 11:-0.875 12:-1 13:-1 14:-1 15:-1 
0.3452107451801071 1:-0.993853 2:-0.288194 3:0.519444 4:-0.281246 5:-0.124737 6:-0.385768 7:-0.480681 8:-0.300719 9:-0.0953469 10:-1 11:-1 12:-0.875 13:-0.5 14:-0.916667 15:-1 
0.4929267560747966 1:-0.994546 2:-0.687787 3:0.313889 4:-0.180476 5:0.616698 6:-0.163546 7:-0.452015 8:-0.100996 9:-0.288533 10:-0.985507 11:-1 12:-1 13:-1 14:-1 15:-1 
0.164011354834825 1:-0.994531 2:-0.527418 3:0.322222 4:-0.340873 5:0.599512 6:-0.146067 7:-0.380349 8:-0.0399697 9:-0.410469 10:-1 11:-1 12:-1 13:-1 14:-1 15:-1 
2 1:-0.994927 2:-0.508439 3:0.355556 4:-0.340604 5:0.560262 6:-0.146067 7:-0.40403 8:-0.233388 9:-0.227462 10:-1 11:-1 12:-1 13:-1 14:-1 15:-1 
1.119260342865966 1:-0.994724 2:-0.525347 3:0.316667 4:-0.121855 5:0.417896 6:-0.146067 7:-0.498338 8:-0.269197 9:-0.103448 10:-1 11:-1 12:-1 13:-1 14:-1 15:-1 
2 1:-0.994426 2:-0.54677 3:0.319444 4:-0.367351 5:0.588203 6:-0.146067 7:-0.486498 8:-0.0472828 9:-0.298297 10:-1 11:-1 12:-1 13:-1 14:-1 15:-1 
0.6199694270805092 1:-0.994778 2:-0.595592 3:0.333333 4:-0.151079 5:0.424992 6:-0.146067 7:-0.669506 8:-0.118901 9:-0.0562941 10:-1 11:-1 12:-1 13:-1 14:-1 15:-1 
0.5171978934779761 1:-0.993336 2:-0.433876 3:0.488889 4:0.113885 5:0.446502 6:-0.146067 7:-0.710843 8:-0.226327 9:0.0735355 10:-0.84058 11:-1 12:-1 13:-1 14:-1 15:-1 
1.740382333518985 1:-0.993912 2:-0.288194 3:0.386111 4:0.0248473 5:-0.128728 6:-0.146067 7:-0.303698 8:-0.469928 9:-0.133153 10:-0.84058 11:-1 12:-1 13:-1 14:-1 15:-1 
2 1:-0.993868 2:-0.288194 3:0.375 4:0.0937488 5:-0.107662 6:-0.146067 7:-0.327171 8:-0.376623 9:-0.186124 10:-0.898551 11:-1 12:-1 13:-1 14:-1 15:-1 
0.7382615755681361 1:-0.993913 2:-0.288194 3:0.394444 4:-0.0153467 5:-0.0816055 6:-0.146067 7:-0.350852 8:-0.247762 9:-0.268799 10:-0.884058 11:-1 12:-1 13:-1 14:-1 15:-0.999951 
2 1:-0.993739 2:-0.288194 3:0.422222 4:0.0700404 5:-0.0715157 6:-0.146067 7:-0.53386 8:-0.448241 9:0.0793519 10:-0.898551 11:-1 12:-1 13:-1 14:-1 15:-0.999951 
0.08536196032765835 1:-0.994718 2:-0.695227 3:0.325 4:-0.219622 5:0.54363 6:-0.153558 7:-0.761944 8:-0.133022 9:0.0475696 10:-1 11:-1 12:-1 13:-1 14:-1 15:-1 
2 1:-0.993584 2:-0.288194 3:0.483333 4:0.116315 5:-0.011753 6:-0.148564 7:-0.668675 8:-0.63359 9:0.366847 10:-1 11:-1 12:-1 13:-1 14:-1 15:-1 
2 1:-0.994506 2:-0.594555 3:0.341667 4:-0.433088 5:0.610489 6:-0.153558 7:-0.422725 8:-0.053335 9:-0.357084 10:-1 11:-1 12:-1 13:-1 14:-1 15:-1 
2 1:-0.994769 2:-0.441602 3:0.411111 4:-0.271059 5:0.548065 6:-0.398252 7:-0.0481928 8:-0.477493 9:-0.382011 10:-1 11:-1 12:-1 13:-1 14:-1 15:-1 
2 1:-0.994651 2:-0.490296 3:0.386111 4:-0.197849 5:0.562257 6:-0.388265 7:-0.111965 8:-0.317614 9:-0.449938 10:-1 11:-1 12:-1 13:-1 14:-1 15:-1 
2 1:-0.993598 2:-0.495325 3:0.491667 4:-0.145768 5:0.532986 6:-0.390762 7:-0.206689 8:-0.364519 9:-0.316784 10:-1 11:-1 12:-1 13:-1 14:-1 15:-0.999951 
1.878020250002648 1:-0.994243 2:-0.457283 3:0.494444 4:-0.214607 5:0.373766 6:-0.393258 7:-0.597632 8:-0.461859 9:0.154342 10:-1 11:-1 12:-1 13:-1 14:-1 15:-1 
2 1:-0.994527 2:-0.410537 3:0.477778 4:-0.366256 5:0.578667 6:-0.373283 7:-0.219983 8:-0.401084 9:-0.273369 10:-1 11:-1 12:-1 13:-1 14:-1 15:-1 
2 1:-0.994523 2:-0.411943 3:0.480556 4:-0.362197 5:0.579 6:-0.373283 7:-0.21209 8:-0.429832 9:-0.257582 10:-1 11:-1 12:-1 13:-1 14:-1 15:-1 
2 1:-0.994522 2:-0.415039 3:0.480556 4:-0.363456 5:0.588092 6:-0.373283 7:-0.228085 8:-0.429832 9:-0.241587 10:-1 11:-1 12:-1 13:-1 14:-1 15:-1 
2 1:-0.994521 2:-0.413471 3:0.475 4:-0.354898 5:0.575119 6:-0.373283 7:-0.21209 8:-0.401084 9:-0.281471 10:-1 11:-1 12:-1 13:-1 14:-1 15:-1 
0.154755358113126 1:-0.99317 2:0.00569931 3:0.477778 4:0.153767 5:0.505378 6:-0.373283 7:-0.418986 8:-0.294666 9:-0.162027 10:-1 11:-1 12:-1 13:-1 14:-1 15:-1 
2 1:-0.993698 2:-0.164315 3:0.413889 4:0.00335391 5:0.595299 6:-0.373283 7:-0.0608641 8:-0.352667 9:-0.472372 10:-1 11:-1 12:-1 13:-1 14:-1 15:-1 
-1.67261801432361 1:-0.993686 2:-0.150102 3:0.441667 4:0.116132 5:0.55627 6:-0.373283 7:-0.124429 8:-0.42025 9:-0.352929 10:-1 11:-1 12:-1 13:-1 14:-1 15:-1 
-0.2070045177099303 1:-0.993396 2:0.00152507 3:0.477778 4:0.00666837 5:0.424326 6:-0.373283 7:-0.856668 8:0.0629177 9:-0.0186955 10:-1 11:-1 12:-1 13:-1 14:-1 15:-1 
0.4792559209881758 1:-0.993936 2:-0.200142 3:0.544444 4:-0.0714386 5:-0.23894 6:-0.373283 7:-0.395098 8:-0.265666 9:-0.209805 10:-1 11:-1 12:-1 13:-1 14:-1 15:-1 
0.4233775619558856 1:-0.993957 2:-0.126829 3:0.547222 4:-0.0830128 5:-0.262668 6:-0.373283 7:-0.21209 8:-0.362249 9:-0.313253 10:-1 11:-1 12:-1 13:-1 14:-1 15:-1 
0.3261249889731721 1:-0.99366 2:-0.50688 3:0.527778 4:0.0249587 5:0.197472 6:-0.373283 7:-0.617989 8:-0.913 9:0.546323 10:-1 11:-1 12:-1 13:-1 14:-1 15:-1 
2 1:-0.994321 2:-0.432761 3:0.438889 4:-0.218993 5:0.722918 6:-0.410737 7:-0.164105 8:-0.415711 9:-0.3172 10:-0.985507 11:-0.875 12:-1 13:-1 14:-0.958333 15:-1 
0.882477079509544 1:-0.994337 2:-0.416303 3:0.480556 4:-0.387118 5:0.605832 6:-0.418227 7:-0.170752 8:-0.325432 9:-0.384919 10:-1 11:-1 12:-1 13:-1 14:-1 15:-1 
0.3036962360064493 1:-0.994175 2:-0.492852 3:0.463889 4:-0.370405 5:-0.206564 6:-0.410737 7:-0.0710428 8:-0.364519 9:-0.45243 10:-0.942029 11:-0.875 12:-1 13:-1 14:-1 15:-1 
1.566412321604557 1:-0.994379 2:-0.505463 3:0.427778 4:-0.283892 5:0.58665 6:-0.373283 7:-0.243872 8:-0.42025 9:-0.233693 10:-1 11:-1 12:-1 13:-1 14:-1 15:-1 
2 1:-0.994275 2:-0.42104 3:0.416667 4:-0.292887 5:0.581439 6:-0.373283 7:-0.259867 8:-0.352667 9:-0.273369 10:-1 11:-1 12:-1 13:-1 14:-1 15:-1 
2 1:-0.994634 2:-0.511279 3:0.45 4:-0.316695 5:0.745981 6:-0.373283 7:-0.0926464 8:-0.372084 9:-0.424595 10:-1 11:-1 12:-1 13:-1 14:-1 15:-1 
1.327012297728109 1:-0.994701 2:-0.499829 3:0.422222 4:-0.205723 5:0.490077 6:-0.373283 7:-0.164312 8:-0.39125 9:-0.337142 10:-1 11:-1 12:-1 13:-1 14:-0.958333 15:-0.999926 
2 1:-0.994334 2:-0.469074 3:0.5 4:-0.204136 5:0.599401 6:-0.373283 7:-0.21209 8:-0.362249 9:-0.313253 10:-1 11:-1 12:-1 13:-1 14:-1 15:-1 
2 1:-0.994349 2:-0.491553 3:0.469444 4:-0.380216 5:0.743874 6:-0.385768 7:-0.156211 8:-0.270962 9:-0.444329 10:-1 11:-1 12:-1 13:-1 14:-1 15:-1 
-0.04157119169561253 1:-0.994067 2:-0.38585 3:0.522222 4:-0.0695109 5:-0.159109 6:-0.483146 7:0.244495 8:-0.883747 9:-0.340258 10:-0.971014 11:-0.875 12:-1 13:-1 14:-1 15:-1 
0.3113374321344466 1:-0.994074 2:-0.484066 3:0.477778 4:-0.210166 5:-0.263 6:-0.433208 7:-0.237432 8:-0.457319 9:-0.209597 10:-0.855072 11:-0.625 12:-1 13:-0.75 14:-1 15:-1 
0.2467480450507487 1:-0.993761 2:-0.288194 3:0.458333 4:-0.0166405 5:-0.15556 6:-0.420724 7:-0.14167 8:-0.291388 9:-0.442044 10:-0.971014 11:-1 12:-1 13:-1 14:-1 15:-1 
2 1:-0.994588 2:-0.399842 3:0.4 4:-0.243537 5:0.500277 6:-0.373283 7:-0.0926464 8:-0.352667 9:-0.44059 10:-1 11:-1 12:-1 13:-1 14:-1 15:-1 
2 1:-0.994206 2:-0.279286 3:0.402778 4:-0.0848506 5:0.45892 6:-0.373283 7:-0.251766 8:-0.227084 9:-0.384919 10:-1 11:-1 12:-1 13:-1 14:-1 15:-1 
2 1:-0.994378 2:-0.270289 3:0.444444 4:-0.195641 5:0.479765 6:-0.373283 7:-0.148317 8:-0.227084 9:-0.488367 10:-1 11:-1 12:-1 13:-1 14:-1 15:-1 
0.9578102818198889 1:-0.993899 2:-0.288194 3:0.458333 4:-0.250848 5:-0.114425 6:-0.423221 7:-0.103656 8:-0.288362 9:-0.482551 10:-0.971014 11:-1 12:-1 13:-1 14:-1 15:-1 
2 1:-0.994101 2:-0.397429 3:0.505556 4:-0.186214 5:0.490853 6:-0.410737 7:-0.206273 8:-0.35418 9:-0.325717 10:-1 11:-0.875 12:-1 13:-1 14:-1 15:-1 
1.314293130847505 1:-0.994236 2:-0.512824 3:0.483333 4:-0.349893 5:0.547843 6:-0.388265 7:-0.258621 8:-0.406632 9:-0.230162 10:-1 11:-1 12:-1 13:-1 14:-1 15:-1 
2 1:-0.994462 2:-0.492523 3:0.486111 4:-0.293891 5:0.614702 6:-0.380774 7:-0.186747 8:-0.442945 9:-0.272123 10:-1 11:-1 12:-1 13:-1 14:-1 15:-1 
2 1:-0.994484 2:-0.452503 3:0.494444 4:-0.264595 5:0.537754 6:-0.398252 7:-0.147486 8:-0.236414 9:-0.481305 10:-1 11:-1 12:-1 13:-1 14:-1 15:-1 
2 1:-0.99448 2:-0.459494 3:0.469444 4:-0.208133 5:0.472447 6:-0.373283 7:-0.204196 8:-0.352667 9:-0.32904 10:-1 11:-1 12:-1 13:-1 14:-1 15:-1 
2 1:-0.994182 2:-0.514904 3:0.480556 4:-0.358677 5:0.569021 6:-0.385768 7:-0.294142 8:-0.399067 9:-0.200872 10:-1 11:-1 12:-1 13:-1 14:-1 15:-1 
2 1:-0.993579 2:-0.10891 3:0.461111 4:-0.00551699 5:0.561703 6:-0.373283 7:-0.180307 8:-0.410667 9:-0.305359 10:-1 11:-1 12:-1 13:-1 14:-1 15:-1 
2 1:-0.994378 2:-0.408008 3:0.466667 4:-0.167563 5:0.668478 6:-0.410737 7:-0.113419 8:-0.35418 9:-0.418571 10:-0.985507 11:-0.875 12:-0.875 13:-1 14:-1 15:-1 
2 1:-0.994209 2:-0.475226 3:0.472222 4:-0.0952186 5:0.591529 6:-0.405743 7:-0.170752 8:-0.349136 9:-0.365393 10:-0.971014 11:-0.75 12:-0.875 13:-1 14:-1 15:-1 
0.6467264087788732 1:-0.994465 2:-0.401621 3:0.469444 4:-0.257425 5:0.750305 6:-0.430712 7:-0.0573328 8:-0.300719 9:-0.518695 10:-0.942029 11:-1 12:-0.75 13:-1 14:-1 15:-1 
1.141020340875082 1:-0.993899 2:-0.288194 3:0.494444 4:-0.223338 5:-0.196252 6:-0.453184 7:-0.0928542 8:-0.427311 9:-0.378895 10:-1 11:-0.875 12:-0.875 13:-1 14:-1 15:-1 
2 1:-0.994755 2:-0.546779 3:0.411111 4:-0.229887 5:0.669586 6:-0.373283 7:-0.0608641 8:-0.42025 9:-0.416701 10:-1 11:-1 12:-1 13:-1 14:-1 15:-1 
2 1:-0.994355 2:-0.40307 3:0.477778 4:-0.249674 5:0.436966 6:-0.385768 7:-0.310345 8:-0.359728 9:-0.217075 10:-1 11:-1 12:-1 13:-1 14:-1 15:-1 
2 1:-0.994197 2:-0.453951 3:0.438889 4:-0.252416 5:0.549396 6:-0.373283 7:-0.259867 8:-0.333249 9:-0.289364 10:-1 11:-1 12:-1 13:-1 14:-1 15:-1 
2 1:-0.994216 2:-0.395786 3:0.475 4:-0.222061 5:0.6524 6:-0.440699 7:-0.13897 8:-0.34258 9:-0.402576 10:-1 11:-1 12:-0.875 13:-1 14:-1 15:-1 
2 1:-0.994303 2:-0.341967 3:0.45 4:-0.213521 5:0.537199 6:-0.373283 7:-0.307644 8:-0.497667 9:-0.106356 10:-1 11:-1 12:-1 13:-1 14:-1 15:-1 
2 1:-0.994441 2:-0.49097 3:0.463889 4:-0.368633 5:0.673356 6:-0.373283 7:-0.156419 8:-0.159501 9:-0.536145 10:-1 11:-1 12:-1 13:-1 14:-1 15:-1 
2 1:-0.994332 2:-0.33388 3:0.45 4:-0.213521 5:0.448165 6:-0.373283 7:-0.307644 8:-0.497667 9:-0.106356 10:-1 11:-1 12:-1 13:-1 14:-1 15:-1 
2 1:-0.994648 2:-0.431444 3:0.475 4:-0.315131 5:0.624792 6:-0.373283 7:-0.164312 8:-0.333249 9:-0.384919 10:-1 11:-1 12:-1 13:-1 14:-1 15:-1 
2 1:-0.994437 2:-0.468768 3:0.438889 4:-0.188894 5:0.484311 6:-0.373283 7:-0.148317 8:-0.352667 9:-0.384919 10:-1 11:-1 12:-1 13:-1 14:-1 15:-1 
0.2642760313422565 1:-0.993696 2:-0.417222 3:0.552778 4:0.116191 5:0.429538 6:-0.373283 7:-0.355422 8:-0.497667 9:-0.0585791 10:-0.869565 11:-1 12:-1 13:-1 14:-1 15:-1 
2 1:-0.993696 2:-0.417222 3:0.552778 4:0.116191 5:0.429538 6:-0.373283 7:-0.355422 8:-0.497667 9:-0.0585791 10:-0.869565 11:-1 12:-1 13:-1 14:-1 15:-1 
2 1:-0.993516 2:-0.288194 3:0.766667 4:0.129535 5:0.0654175 6:-0.373283 7:-1 8:-0.951582 9:0.960116 10:-1 11:-1 12:-1 13:-1 14:-1 15:-1 
2 1:-0.993468 2:-0.288194 3:0.727778 4:0.0595921 5:0.104114 6:-0.373283 7:-1 8:-0.932417 9:0.944329 10:-1 11:-1 12:-1 13:-1 14:-1 15:-1 
2 1:-0.993472 2:-0.288194 3:0.75 4:0.0982035 5:0.0756181 6:-0.373283 7:-1 8:-0.971 9:0.976111 10:-1 11:-1 12:-1 13:-1 14:-1 15:-1 
2 1:-0.993416 2:-0.288194 3:0.761111 4:0.119322 5:0.0752855 6:-0.373283 7:-1 8:-0.971 9:0.976111 10:-1 11:-1 12:-1 13:-1 14:-1 15:-1 
2 1:-0.993461 2:-0.288194 3:0.752778 4:0.0471389 5:0.102229 6:-0.373283 7:-1 8:-0.903417 9:0.92044 10:-1 11:-1 12:-1 13:-1 14:-1 15:-1 
0.4261316646710269 1:-0.994554 2:-0.549989 3:0.419444 4:-0.274503 5:0.560373 6:-0.373283 7:-0.570212 8:-0.343084 9:0.0290818 10:-1 11:-1 12:-1 13:-1 14:-1 15:-1 
2 1:-0.993851 2:-0.288194 3:0.511111 4:-0.0481191 5:-0.248254 6:-0.373283 7:-0.156419 8:-0.710251 9:-0.0824678 10:-1 11:-1 12:-1 13:-1 14:-1 15:-1 
2 1:-0.9938 2:-0.288194 3:0.516667 4:-0.0563806 5:-0.249917 6:-0.373283 7:-0.156419 8:-0.739251 9:-0.0585791 10:-1 11:-1 12:-1 13:-1 14:-1 15:-1 
2 1:-0.993884 2:-0.288194 3:0.472222 4:-0.107451 5:-0.283291 6:-0.373283 7:-0.0529705 8:-0.710251 9:-0.185916 10:-1 11:-1 12:-1 13:-1 14:-1 15:-0.999951 
1.406047847172408 1:-0.993345 2:-0.429376 3:0.516667 4:0.0872605 5:0.299701 6:-0.388265 7:-0.511217 8:-0.663851 9:0.234317 10:-1 11:-1 12:-1 13:-1 14:-1 15:-0.999901 
2 1:-0.994523 2:-0.420024 3:0.491667 4:-0.278418 5:0.600732 6:-0.420724 7:-0.184462 8:-0.322658 9:-0.373494 10:-0.971014 11:-0.875 12:-0.875 13:-1 14:-1 15:-1 
2 1:-0.994413 2:-0.365371 3:0.486111 4:-0.213802 5:0.501275 6:-0.485643 7:-0.173037 8:-0.404615 9:-0.317615 10:-1 11:-1 12:-1 13:-1 14:-1 15:-1 
2 1:-0.994337 2:-0.511755 3:0.458333 4:-0.43595 5:0.617031 6:-0.393258 7:-0.113211 8:-0.461859 9:-0.330079 10:-1 11:-1 12:-1 13:-1 14:-1 15:-1 
2 1:-0.994416 2:-0.488761 3:0.45 4:-0.331596 5:0.61315 6:-0.378277 7:-0.0695887 8:-0.269701 9:-0.53199 10:-1 11:-1 12:-1 13:-1 14:-1 15:-1 
2 1:-0.994499 2:-0.481799 3:0.461111 4:-0.115609 5:0.37798 6:-0.373283 7:-0.331533 8:-0.429832 9:-0.138139 10:-1 11:-1 12:-1 13:-1 14:-1 15:-1 
2 1:-0.994585 2:-0.469674 3:0.416667 4:-0.199797 5:0.52345 6:-0.373283 7:-0.108641 8:-0.362249 9:-0.416701 10:-1 11:-1 12:-1 13:-1 14:-1 15:-1 
1.162148706807445 1:-0.993455 2:-0.267673 3:0.863889 4:-0.164584 5:-0.105333 6:-0.812734 7:-0.755713 8:0.186736 9:-0.221853 10:-1 11:-1 12:-1 13:-1 14:-1 15:-1 
-2 1:-0.993676 2:-0.324587 3:0.847222 4:-0.220471 5:0.394944 6:-0.80774 7:-0.594101 8:-0.159501 9:-0.0982551 10:-1 11:-1 12:-1 13:-1 14:-1 15:-1 
-2 1:-0.993671 2:-0.317637 3:0.841667 4:-0.166563 5:0.322541 6:-0.80774 7:-1 8:-0.0435002 9:0.21209 10:-1 11:-1 12:-1 13:-1 14:-1 15:-1 
-2 1:-0.993646 2:-0.374079 3:0.866667 4:-0.195271 5:0.433862 6:-0.80774 7:-0.713544 8:-0.0725003 9:-0.0504778 10:-1 11:-1 12:-1 13:-1 14:-1 15:-1 
-2 1:-0.993921 2:-0.38019 3:0.891667 4:-0.247561 5:0.350926 6:-0.80774 7:-1 8:0.53625 9:-0.265476 10:-1 11:-1 12:-1 13:-1 14:-1 15:-1 
-2 1:-0.993885 2:-0.378269 3:0.897222 4:-0.263317 5:0.344384 6:-0.80774 7:-1 8:0.47825 9:-0.217698 10:-1 11:-1 12:-1 13:-1 14:-1 15:-1 
-2 1:-0.993678 2:-0.317681 3:0.852778 4:-0.209585 5:0.392172 6:-0.80774 7:-1 8:0.275249 9:-0.0504778 10:-1 11:-1 12:-1 13:-1 14:-1 15:-1 
-0.4664686079420062 1:-0.993521 2:-0.315041 3:0.888889 4:-0.233932 5:-0.0830469 6:-0.842697 7:-1 8:0.658051 9:-0.365808 10:-0.985507 11:-1 12:-0.75 13:-1 14:-1 15:-1 
1.990905664489443 1:-0.993701 2:-0.287976 3:0.897222 4:-0.34871 5:0.512474 6:-0.80774 7:-0.808891 8:0.1015 9:-0.0982551 10:-1 11:-1 12:-1 13:-1 14:-1 15:-0.999951 
-2 1:-0.993656 2:-0.328244 3:0.9 4:-0.303202 5:0.461914 6:-0.80774 7:-1 8:0.217501 9:-0.00290818 10:-1 11:-1 12:-1 13:-1 14:-1 15:-1 
-2 1:-0.993679 2:-0.356216 3:0.888889 4:-0.268876 5:0.484089 6:-0.80774 7:-1 8:0.362249 9:-0.122144 10:-1 11:-1 12:-1 13:-1 14:-1 15:-1 
-2 1:-0.993644 2:-0.33826 3:0.891667 4:-0.270168 5:0.430092 6:-0.80774 7:-0.904445 8:0.159501 9:-0.0504778 10:-1 11:-1 12:-1 13:-1 14:-1 15:-1 
-2 1:-0.993691 2:-0.316284 3:0.880556 4:-0.268956 5:0.478656 6:-0.80774 7:-1 8:0.1015 9:0.0926464 10:-1 11:-1 12:-1 13:-1 14:-1 15:-1 
-0.3730781134337074 1:-0.993458 2:-0.27633 3:0.852778 4:-0.271167 5:0.333185 6:-0.80774 7:-1 8:0.883999 9:-0.551932 10:-1 11:-1 12:-1 13:-1 14:-1 15:-1 
-2 1:-0.99352 2:-0.299824 3:0.855556 4:-0.279241 5:0.441512 6:-0.80774 7:-1 8:0.796999 9:-0.480266 10:-1 11:-1 12:-1 13:-1 14:-1 15:-1 
-0.6844207853264412 1:-0.993639 2:-0.21381 3:0.9 4:-0.302381 5:0.345604 6:-0.80774 7:-0.761321 8:0.59425 9:-0.551932 10:-1 11:-1 12:-1 13:-1 14:-1 15:-1 
-2 1:-0.993655 2:-0.300902 3:0.841667 4:-0.220162 5:0.390509 6:-0.810237 7:-1 8:0.348884 9:-0.111134 10:-1 11:-1 12:-1 13:-1 14:-1 15:-1 
2 1:-0.993176 2:-0.204983 3:0.869444 4:-0.177085 5:0.430092 6:-0.80774 7:-1 8:0.42025 9:-0.169921 10:-1 11:-1 12:-1 13:-1 14:-1 15:-1 
-2 1:-0.993539 2:-0.351919 3:0.863889 4:-0.273786 5:-0.262779 6:-0.80774 7:-0.450769 8:-0.217501 9:-0.19381 10:-1 11:-1 12:-1 13:-1 14:-1 15:-1 
-0.8468714614027485 1:-0.993506 2:-0.373405 3:0.861111 4:-0.228311 5:-0.307906 6:-0.80774 7:-0.450769 8:-0.362249 9:-0.0743664 10:-1 11:-1 12:-1 13:-1 14:-1 15:-1 
0.8535778704684319 1:-0.993464 2:-0.221739 3:0.938889 4:-0.232092 5:0.321765 6:-0.80774 7:-1 8:0.217501 9:-0.00290818 10:-1 11:-1 12:-1 13:-1 14:-1 15:-1 
1.020926167478353 1:-0.993348 2:-0.288194 3:0.947222 4:-0.133249 5:0.116864 6:-0.80774 7:-1 8:-0.623251 9:0.689655 10:-1 11:-1 12:-1 13:-1 14:-1 15:-1 
-0.03038436477915277 1:-0.993555 2:-0.336111 3:0.861111 4:-0.281776 5:-0.319215 6:-0.852684 7:-0.277524 8:-0.0498046 9:-0.505193 10:-1 11:-1 12:-0.875 13:-1 14:-1 15:-1 
-2 1:-0.993431 2:-0.288194 3:0.852778 4:-0.269216 5:-0.0551059 6:-0.80774 7:-1 8:0.188501 9:0.0209805 10:-1 11:-1 12:-1 13:-1 14:-1 15:-1 
-2 1:-0.993411 2:-0.288194 3:0.863889 4:-0.272995 5:0.0186273 6:-0.80774 7:-1 8:0.1015 9:0.0926464 10:-1 11:-1 12:-1 13:-1 14:-1 15:-1 
-0.7583104503563017 1:-0.993399 2:-0.288194 3:0.847222 4:-0.171503 5:-0.0442399 6:-0.80774 7:-1 8:0.130501 9:0.0687578 10:-1 11:-1 12:-1 13:-1 14:-1 15:-1 
-1.484043302190736 1:-0.993425 2:-0.288194 3:0.863889 4:-0.267785 5:0.0341501 6:-0.80774 7:-1 8:0.304249 9:-0.0743664 10:-1 11:-1 12:-1 13:-1 14:-1 15:-1 
0.9837715209213165 1:-0.993504 2:-0.317902 3:0.85 4:-0.203228 5:0.0536645 6:-0.80774 7:-1 8:0.42025 9:-0.169921 10:-1 11:-1 12:-1 13:-1 14:-1 15:-1 
-0.7935143329137737 1:-0.99343 2:-0.354093 3:0.841667 4:-0.242879 5:0.0843774 6:-0.80774 7:-1 8:-0.0145001 9:0.188201 10:-1 11:-1 12:-1 13:-1 14:-1 15:-1 
-1.056982372840617 1:-0.993372 2:-0.260532 3:0.908333 4:-0.202411 5:0.0993458 6:-0.835206 7:-1 8:0.260875 9:-0.0386373 10:-0.927536 11:-1 12:-1 13:-1 14:-1 15:-1 
-0.01930889072182516 1:-0.993604 2:-0.313834 3:0.847222 4:-0.224541 5:-0.256459 6:-0.820225 7:-0.0880764 8:-1 9:0.0880764 10:-0.869565 11:-0.75 12:-0.875 13:-1 14:-1 15:-1 
-1.154274084676028 1:-0.993252 2:-0.253665 3:0.955556 4:-0.278528 5:0.526777 6:-0.930087 7:-0.398629 8:-0.40285 9:-0.0932696 10:-1 11:-1 12:-1 13:-1 14:-1 15:-1 
-2 1:-0.993277 2:-0.356171 3:0.830556 4:-0.299381 5:0.100898 6:-0.810237 7:-0.903407 8:0.0848569 9:0.00976319 10:-1 11:-1 12:-1 13:-1 14:-1 15:-1 
-2 1:-0.993318 2:-0.373173 3:0.836111 4:-0.196612 5:0.102007 6:-0.810237 7:-1 8:-0.237675 9:0.37204 10:-1 11:-1 12:-1 13:-1 14:-1 15:-1 
-2 1:-0.993382 2:-0.349754 3:0.844444 4:-0.226661 5:0.102783 6:-0.810237 7:-1 8:0.0556046 9:0.130453 10:-1 11:-1 12:-1 13:-1 14:-1 15:-1 
1.448750648044983 1:-0.993438 2:-0.200395 3:0.925 4:-0.207281 5:0.350482 6:-0.80774 7:-1 8:-0.0725003 9:0.235978 10:-1 11:-1 12:-1 13:-1 14:-1 15:-1 
-1.778746321521971 1:-0.993506 2:-0.259541 3:0.872222 4:-0.359195 5:0.678124 6:-0.80774 7:-1 8:0.796999 9:-0.480266 10:-1 11:-1 12:-1 13:-1 14:-1 15:-1 
-1.240327218006948 1:-0.99351 2:-0.298231 3:0.9 4:-0.332231 5:0.688214 6:-0.80774 7:-1 8:0.623251 9:-0.337142 10:-1 11:-1 12:-1 13:-1 14:-1 15:-1 
-2 1:-0.993544 2:-0.314905 3:0.833333 4:-0.260743 5:0.554829 6:-0.80774 7:-0.761321 8:0.652251 9:-0.599709 10:-1 11:-1 12:-1 13:-1 14:-1 15:-1 
-2 1:-0.993729 2:-0.36469 3:0.883333 4:-0.269415 5:0.569243 6:-0.80774 7:-0.808891 8:0.50725 9:-0.432696 10:-1 11:-1 12:-1 13:-1 14:-1 15:-1 
-2 1:-0.993319 2:-0.284682 3:0.875 4:-0.296569 5:0.660716 6:-0.80774 7:-0.78521 8:0.44925 9:-0.408808 10:-1 11:-1 12:-1 13:-1 14:-1 15:-1 
-0.1868972733113102 1:-0.993232 2:-0.27953 3:0.916667 4:-0.183507 5:0.307351 6:-0.80774 7:-1 8:-0.188501 9:0.331533 10:-1 11:-1 12:-1 13:-1 14:-1 15:-1 
-1.122921725059579 1:-0.993232 2:-0.27953 3:0.916667 4:-0.183507 5:0.307351 6:-0.80774 7:-1 8:-0.188501 9:0.331533 10:-1 11:-1 12:-1 13:-1 14:-1 15:-1 
0.2569021250556124 1:-0.993406 2:-0.288194 3:0.897222 4:-0.22212 5:-0.224859 6:-0.862672 7:-0.616535 8:0.047535 9:-0.246365 10:-0.927536 11:-1 12:-1 13:-1 14:-1 15:-1 
-2 1:-0.993379 2:-0.355515 3:0.902778 4:-0.282064 5:0.378423 6:-0.80774 7:-1 8:-0.0435002 9:0.21209 10:-1 11:-1 12:-1 13:-1 14:-1 15:-0.999926 
-1.261360625967594 1:-0.993373 2:-0.288194 3:0.905556 4:-0.217012 5:0.0277193 6:-0.845194 7:-1 8:0.120666 9:0.0768592 10:-1 11:-1 12:-1 13:-1 14:-1 15:-1 
-0.01547799776333266 1:-0.994173 2:-0.132499 3:0.419444 4:-0.0297503 5:-0.284289 6:-0.303371 7:-0.0367678 8:-0.345606 9:-0.502285 10:-0.985507 11:-1 12:-1 13:-1 14:-1 15:-1 
-0.05141440269136705 1:-0.980716 2:-0.692761 3:0.605556 4:0.134593 5:-0.164209 6:-0.275905 7:-0.459909 8:-0.588198 9:0.12069 10:-1 11:-1 12:-0.75 13:-1 14:-0.25 15:-0.840749 
-2 1:-0.994712 2:-0.261613 3:0.377778 4:-0.230435 5:0.443841 6:-0.275905 7:-0.245326 8:-0.344345 9:-0.294765 10:-1 11:-1 12:-1 13:-1 14:-1 15:-1 
-0.4072519386766558 1:-0.99444 2:-0.231898 3:0.472222 4:-0.244664 5:0.445726 6:-0.275905 7:-0.356045 8:-0.487328 9:-0.0662651 10:-1 11:-1 12:-1 13:-1 14:-1 15:-1 
-2 1:-0.993612 2:-0.201595 3:0.441667 4:-0.186834 5:0.419337 6:-0.318352 7:-0.346697 8:-0.474215 9:-0.0864146 10:-1 11:-1 12:-1 13:-1 14:-1 15:-1 
-2 1:-0.993822 2:-0.139762 3:0.430556 4:-0.184675 5:0.521676 6:-0.338327 7:-0.259659 8:-0.385702 9:-0.246365 10:-1 11:-1 12:-1 13:-1 14:-1 15:-1 
-1.095433317772237 1:-0.993889 2:0.0503273 3:0.472222 4:-0.109241 5:0.403703 6:-0.275905 7:-0.515372 8:-0.386458 9:0.00976319 10:-1 11:-1 12:-1 13:-1 14:-0.958333 15:-1 
-0.7690259038300196 1:-0.994202 2:-0.298642 3:0.438889 4:0.0519737 5:-0.342832 6:-0.275905 7:-0.0305359 8:-0.655277 9:-0.25322 10:-1 11:-1 12:-1 13:-1 14:-1 15:-1 
-0.4827406660596747 1:-0.993358 2:-0.00395739 3:0.527778 4:0.0165134 5:0.208671 6:-0.383271 7:-0.523058 8:-0.911739 9:0.450353 10:-1 11:-1 12:-1 13:-1 14:-1 15:-1 
-1.023281895228291 1:-0.994328 2:-0.390943 3:0.505556 4:-0.145907 5:0.604834 6:-0.370787 7:-0.460947 8:-0.239692 9:-0.165559 10:-0.942029 11:-0.75 12:-0.75 13:-1 14:-1 15:-1 
-0.5578672311407377 1:-0.993956 2:-0.288194 3:0.519444 4:0.164246 5:-0.188934 6:-0.275905 7:-0.286872 8:-0.604842 9:-0.0386373 10:-0.927536 11:-1 12:-1 13:-1 14:-1 15:-0.999975 
-1.651715189461521 1:-0.99401 2:-0.288194 3:0.505556 4:0.0477409 5:-0.157335 6:-0.275905 7:-0.224553 8:-0.445215 9:-0.232447 10:-0.84058 11:-1 12:-1 13:-1 14:-1 15:-0.999975 
-0.5885298545588119 1:-0.993956 2:-0.288194 3:0.505556 4:-0.0262558 5:-0.148021 6:-0.275905 7:-0.210636 8:-0.571302 9:-0.142501 10:-0.971014 11:-1 12:-1 13:-1 14:-1 15:-1 
-1.472567328269547 1:-0.994044 2:-0.288194 3:0.505556 4:0.0726091 5:-0.222419 6:-0.275905 7:-0.0720814 8:-0.59652 9:-0.260283 10:-0.913043 11:-1 12:-1 13:-1 14:-1 15:-1 
-0.08141385115301035 1:-0.9941 2:-0.141849 3:0.491667 4:-0.0893057 5:-0.343386 6:-0.365793 7:-0.378479 8:-0.379145 9:-0.133153 10:-0.884058 11:-1 12:-0.875 13:-0.25 14:-1 15:-1 
-1.478715063059747 1:-0.993655 2:-0.288194 3:0.458333 4:-0.11998 5:-0.260007 6:-0.32834 7:-0.374533 8:-0.746816 9:0.166182 10:-1 11:-1 12:-1 13:-1 14:-1 15:-1 
-0.5839151610418722 1:-0.993904 2:-0.288194 3:0.425 4:-0.0695642 5:-0.410578 6:-0.275905 7:-0.12069 8:-0.89913 9:0.0375987 10:-1 11:-1 12:-1 13:-1 14:-1 15:-1 
-1.069187607874725 1:-0.99379 2:-0.288194 3:0.488889 4:-0.0944041 5:-0.24781 6:-0.365793 7:-0.409846 8:-0.656033 9:0.126506 10:-1 11:-1 12:-1 13:-1 14:-1 15:-1 
-2 1:-0.993638 2:-0.288194 3:0.444444 4:-0.0624076 5:-0.196363 6:-0.275905 7:-0.522227 8:-0.554407 9:0.155172 10:-0.942029 11:-1 12:-1 13:-1 14:-1 15:-0.999951 
-1.842375353872888 1:-0.993386 2:-0.119987 3:0.413889 4:-0.0849118 5:0.0255017 6:-0.275905 7:-0.522227 8:-0.453537 9:0.0720814 10:-1 11:-1 12:-1 13:-1 14:-1 15:-0.999951 
-0.5885310847703124 1:-0.993833 2:0.00418221 3:0.447222 4:-0.00497912 5:0.536645 6:-0.405743 7:0.0554632 8:-0.440676 9:-0.515995 10:-0.971014 11:-0.875 12:-1 13:-1 14:-1 15:-1 
-1.478746516722513 1:-0.993564 2:-0.219643 3:0.841667 4:-0.168301 5:0.409802 6:-0.785268 7:-0.394059 8:-0.684781 9:0.1344 10:-1 11:-1 12:-1 13:-1 14:-0.958333 15:-1 
-2 1:-0.993822 2:-0.259732 3:0.688889 4:-0.181185 5:0.498281 6:-0.625468 7:0.0386373 8:-0.8898 9:-0.129622 10:-1 11:-1 12:-1 13:-1 14:-1 15:-1 
-0.0987801182553301 1:-0.994388 2:-0.436594 3:0.502778 4:0.0544041 5:0.455705 6:-0.430712 7:-0.415247 8:-0.31131 9:-0.152057 10:-0.956522 11:-0.75 12:-0.875 13:-1 14:-1 15:-1 
-1.388539216575462 1:-0.993925 2:-0.253511 3:0.613889 4:-0.103917 5:0.585985 6:-0.558052 7:-0.322393 8:0.011474 9:-0.510802 10:-0.971014 11:-1 12:-1 13:-1 14:-1 15:-1 
-1.97410358947324 1:-0.994701 2:-0.333679 3:0.391667 4:-0.128498 5:0.646857 6:-0.275905 7:-0.0652264 8:-0.369562 9:-0.454092 10:-1 11:-1 12:-1 13:-1 14:-1 15:-0.999975 
-2 1:-0.994666 2:-0.31732 3:0.430556 4:-0.0954497 5:0.605167 6:-0.275905 7:-0.175945 8:-0.285588 9:-0.412547 10:-1 11:-1 12:-1 13:-1 14:-1 15:-1 
0.324175764559732 1:-0.994933 2:-0.496375 3:0.397222 4:-0.101008 5:0.668145 6:-0.275905 7:-0.00290818 8:-0.277014 9:-0.592646 10:-1 11:-1 12:-1 13:-1 14:-1 15:-1 
-0.1877784605959688 1:-0.995251 2:-0.393224 3:0.411111 4:-0.131072 5:0.666704 6:-0.275905 7:-0.106772 8:-0.302232 9:-0.46801 10:-1 11:-1 12:-1 13:-1 14:-1 15:-1 
-0.8368565490427674 1:-0.993976 2:-0.288194 3:0.422222 4:-0.116966 5:-0.433862 6:-0.370787 7:-0.24678 8:-0.278023 9:-0.347943 10:-0.971014 11:-0.875 12:-0.875 13:-1 14:-1 15:-1 
-0.4608024327868447 1:-0.993866 2:-0.288194 3:0.527778 4:-0.104853 5:-0.195254 6:-0.41573 7:-0.284794 8:-0.431598 9:-0.183423 10:-0.956522 11:-1 12:-0.75 13:-1 14:-0.958333 15:-1 
-0.3830221383410476 1:-0.993573 2:-0.288194 3:0.580556 4:0.0854882 5:-0.000887016 6:-0.278402 7:-0.617989 8:-0.806077 9:0.458039 10:-1 11:-1 12:-1 13:-1 14:-1 15:-1 
-0.1740106071957465 1:-0.994153 2:-0.158728 3:0.505556 4:-0.136196 5:0.421554 6:-0.45568 7:-0.12526 8:-0.546589 9:-0.248234 10:-1 11:-1 12:-1 13:-1 14:-1 15:-1 
-1.709522992130101 1:-0.993953 2:-0.0873556 3:0.375 4:-0.193702 5:0.41845 6:-0.300874 7:-0.548816 8:-0.269449 9:-0.0529705 10:-1 11:-1 12:-1 13:-1 14:-1 15:-1 
-2 1:-0.994219 2:-0.207674 3:0.419444 4:-0.125247 5:0.382304 6:-0.353308 7:-0.358953 8:-0.278275 9:-0.235563 10:-1 11:-1 12:-1 13:-1 14:-1 15:-1 
-0.5152309383035751 1:-0.99448 2:-0.261159 3:0.527778 4:-0.209866 5:0.459585 6:-0.530587 7:0.0702119 8:-0.592485 9:-0.405899 10:-1 11:-1 12:-1 13:-1 14:-1 15:-1 
-2 1:-0.99431 2:-0.205642 3:0.588889 4:-0.294344 5:0.536867 6:-0.565543 7:0.0386373 8:-0.492876 9:-0.456377 10:-1 11:-1 12:-1 13:-1 14:-1 15:-1 
-2 1:-0.994361 2:-0.30317 3:0.472222 4:-0.213954 5:0.439406 6:-0.433208 7:-0.246157 8:-0.574329 9:-0.104279 10:-1 11:-1 12:-1 13:-1 14:-1 15:-1 
2 1:-0.99356 2:-0.236379 3:0.533333 4:-0.0903369 5:0.521898 6:-0.453184 7:-0.120066 8:-0.405371 9:-0.369755 10:-0.942029 11:-1 12:-1 13:-1 14:-1 15:-0.999975 
0.7589417551535842 1:-0.99404 2:-0.341769 3:0.611111 4:-0.192505 5:0.322209 6:-0.49563 7:-0.715829 8:-0.750095 9:0.510179 10:-1 11:-1 12:-1 13:-1 14:-1 15:-1 
-0.2961429964201129 1:-0.994701 2:-0.383996 3:0.488889 4:-0.295171 5:0.564475 6:-0.400749 7:0.0718737 8:-0.455302 9:-0.520565 10:-0.956522 11:-1 12:-1 13:-1 14:-1 15:-0.999975 
-0.4622596980982333 1:-0.994232 2:-0.231438 3:0.580556 4:-0.316516 5:0.551502 6:-0.400749 7:-0.35189 8:-0.344345 9:-0.188201 10:-0.942029 11:-1 12:-1 13:-1 14:-1 15:-1 
2 1:-0.994434 2:-0.403869 3:0.483333 4:-0.205491 5:0.4842 6:-0.400749 7:0.0635646 8:-0.475476 9:-0.495638 10:-1 11:-1 12:-1 13:-1 14:-1 15:-1 
1.765161233407303 1:-0.991706 2:-0.32072 3:0.508333 4:-0.194801 5:0.364564 6:-0.400749 7:-0.4516 8:-0.525911 9:0.0610719 10:-1 11:-1 12:-1 13:-1 14:-0.958333 15:-0.997383 
-0.7949548536145485 1:-0.99359 2:-0.0488473 3:0.45 4:-0.0246682 5:0.552389 6:-0.400749 7:-0.218945 8:-0.414954 9:-0.262983 10:-1 11:-1 12:-1 13:-1 14:-1 15:-1 
-0.1755742965521495 1:-0.993034 2:0.0350483 3:0.486111 4:-0.00383052 5:0.480874 6:-0.400749 7:-0.6344 8:0.281049 9:-0.420856 10:-1 11:-1 12:-1 13:-1 14:-1 15:-1 
1.924682176924407 1:-0.994051 2:-0.249393 3:0.588889 4:-0.210237 5:0.448165 6:-0.515605 7:-0.0427919 8:-0.616694 9:-0.272746 10:-1 11:-1 12:-0.875 13:-1 14:-1 15:-1 
1.165298455383151 1:-0.993994 2:-0.22467 3:0.597222 4:-0.225898 5:0.45127 6:-0.515605 7:-0.164936 8:-0.641407 9:-0.130245 10:-1 11:-1 12:-0.875 13:-1 14:-1 15:-1 
-0.01500756020361588 1:-0.99407 2:-0.457474 3:0.547222 4:-0.10733 5:-0.354474 6:-0.400749 7:-0.194017 8:-0.788173 9:0.0195264 10:-1 11:-1 12:-1 13:-1 14:-1 15:-1 
2 1:-0.993139 2:-0.188548 3:0.55 4:-0.00895721 5:0.210777 6:-0.400749 7:-0.717491 8:-0.919304 9:0.651018 10:-1 11:-1 12:-1 13:-1 14:-1 15:-1 
2 1:-0.99375 2:-0.17598 3:0.508333 4:-0.0914605 5:0.239827 6:-0.400749 7:-0.468218 8:-0.89913 9:0.385127 10:-1 11:-1 12:-1 13:-1 14:-1 15:-1 
-2 1:-0.994343 2:-0.357156 3:0.511111 4:-0.221688 5:0.405366 6:-0.400749 7:-0.268799 8:-0.59652 9:-0.0635646 10:-1 11:-1 12:-1 13:-1 14:-1 15:-1 
2 1:-0.994287 2:-0.252699 3:0.530556 4:-0.23269 5:0.441069 6:-0.400749 7:-0.102617 8:-0.455302 9:-0.346074 10:-1 11:-1 12:-1 13:-1 14:-1 15:-1 
-1.771790271587849 1:-0.993749 2:-0.372684 3:0.502778 4:-0.157337 5:-0.0701852 6:-0.400749 7:-0.310345 8:-0.535998 9:-0.0718737 10:-1 11:-1 12:-1 13:-1 14:-1 15:-1 
-2 1:-0.993756 2:-0.332149 3:0.486111 4:-0.14815 5:-0.0742876 6:-0.400749 7:-0.335272 8:-0.616694 9:0.0195264 10:-1 11:-1 12:-1 13:-1 14:-1 15:-1 
-0.3612798795160012 1:-0.993619 2:-0.288194 3:0.752778 4:-0.16061 5:-0.396275 6:-0.715356 7:0.0720814 8:-0.512041 9:-0.474242 10:-0.985507 11:-1 12:-0.875 13:-1 14:-1 15:-1 
0.1116485096492055 1:-0.994099 2:-0.270907 3:0.552778 4:-0.225728 5:0.515467 6:-0.518102 7:0.156419 8:-0.527928 9:-0.545077 10:-0.985507 11:-0.875 12:-0.875 13:-1 14:-1 15:-1 
2 1:-0.993989 2:-0.297606 3:0.583333 4:-0.236438 5:0.39694 6:-0.498127 7:-0.379726 8:-0.486067 9:-0.0436228 10:-1 11:-1 12:-1 13:-1 14:-1 15:-1 
2 1:-0.993894 2:-0.334164 3:0.638889 4:-0.244243 5:0.43996 6:-0.440699 7:-0.458455 8:-0.547346 9:0.0855837 10:-1 11:-1 12:-1 13:-1 14:-1 15:-1 
2 1:-0.994026 2:-0.323682 3:0.652778 4:-0.269987 5:0.517241 6:-0.598002 7:-0.0768592 8:-0.380658 9:-0.433527 10:-1 11:-1 12:-1 13:-1 14:-1 15:-1 
2 1:-0.96123 2:-0.207557 3:0.627778 4:-0.0626931 5:0.398159 6:-0.400749 7:-0.293727 8:-0.49565 9:-0.121728 10:-1 11:-1 12:-1 13:-1 14:-0.958333 15:-0.964644 
1.763652669150006 1:-0.980117 2:-0.236393 3:0.580556 4:-0.12983 5:0.364896 6:-0.400749 7:-0.252181 8:-0.525911 9:-0.138346 10:-1 11:-0.875 12:-1 13:-1 14:-1 15:-0.984421 
